nep4 1 Si 
cutoff 5.5 5.5 70 70
n_max 10 10
basis_size 12 12
l_max 4 2 0
ANN 60 0
 -6.2933423e-06
 -4.0351210e-07
 -1.8865287e-06
  2.7716284e-05
 -2.4365440e-06
 -2.0934647e-05
 -8.2713404e-06
  2.3362250e-05
  2.9211778e-05
 -1.0108088e-05
 -6.8169575e-06
  8.8828147e-06
  1.4796085e-05
  1.0129120e-05
 -4.8877305e-06
 -7.1662953e-06
  1.6167893e-05
 -1.7924587e-05
  2.1217273e-05
 -2.7252861e-05
 -6.8240013e-05
  1.2377307e-06
 -1.9009914e-05
 -2.4336643e-05
 -1.3505470e-05
 -1.3057138e-06
  2.2878014e-06
 -1.5676940e-05
  1.0743172e-06
 -6.6331063e-07
 -2.0278037e-05
  2.4571991e-05
 -1.8866219e-06
 -3.7902289e-05
 -1.1556731e-06
 -2.6536738e-05
  2.4415898e-05
 -2.9676235e-05
  2.7844244e-06
 -1.4712075e-05
  9.3336412e-06
  2.2082338e-06
  1.1470786e-07
  1.6495158e-05
  1.4358076e-05
 -3.0406554e-05
  1.4227910e-05
 -1.7351376e-05
 -3.2200414e-06
 -3.0324512e-05
 -3.8715132e-07
  5.3916790e-07
  3.2095009e-05
  1.8904129e-05
  1.0282171e-06
 -1.1056653e-05
 -5.8772830e-06
 -9.6849835e-06
 -3.7379114e-06
  2.0110483e-05
  2.1952977e-05
 -1.9390488e-06
 -6.0306543e-06
  2.0227360e-05
 -1.0985704e-06
  1.5528827e-05
 -1.1965297e-04
 -3.4100442e-05
  3.5084643e-06
  1.6201730e-05
 -1.8817160e-05
  1.9500016e-05
  2.1266047e-05
 -1.8468522e-06
  2.2253755e-06
 -8.1847465e-06
 -8.2459064e-06
 -8.3950581e-06
  1.8072766e-05
  3.4176219e-07
  1.6829576e-05
  3.7787668e-05
 -3.3888884e-06
  8.3425738e-07
 -6.2271397e-07
  1.7036842e-05
  1.3111642e-05
  2.3399600e-05
 -6.4539695e-06
 -1.1600978e-05
 -6.9975722e-06
  1.1870454e-06
 -1.2584778e-05
  9.9616809e-06
 -4.1428220e-06
 -3.0672838e-06
  3.3056206e-06
  1.2434089e-06
  1.9648958e-05
 -2.4582210e-05
  1.1588515e-05
 -2.5872168e-05
  1.4492321e-06
 -2.1707235e-06
 -2.6274424e-07
 -6.2963118e-06
 -2.4652563e-05
 -8.7297354e-05
  1.8613009e-06
 -1.9256291e-05
 -1.1518234e-06
  1.5273838e-05
  2.2511136e-07
 -5.0893082e-06
  2.7963692e-06
  1.2769209e-05
  3.3056942e-05
  4.6318124e-05
  6.4436094e-06
 -9.5168143e-06
 -1.7625236e-05
  4.6513651e-06
 -1.4424916e-05
 -8.0313739e-06
  9.6589056e-06
  1.5785459e-05
  9.5980413e-06
  1.7279042e-05
  3.5141253e-05
 -4.4967337e-06
 -8.4117182e-06
  4.8001971e-06
  9.6570511e-07
  1.3036743e-06
  3.0475461e-05
  7.1312988e-06
  1.2311019e-05
 -2.5640761e-06
 -9.8119554e-06
  1.1271290e-05
 -2.1972635e-05
 -1.3607048e-06
 -1.6473290e-05
 -4.8107559e-06
 -1.1007563e-05
 -4.4044054e-06
  9.0413005e-06
  9.9515491e-06
 -2.4318344e-05
 -5.0545019e-05
 -1.3286782e-05
 -4.3838572e-05
  4.7960668e-07
 -9.3041426e-06
  2.4756620e-05
 -2.0447429e-05
 -2.7125834e-06
 -9.9903480e-07
 -3.0769536e-07
  1.3587753e-05
 -2.1750646e-05
  3.2396458e-06
 -4.7603389e-06
  2.9061161e-05
 -3.0906860e-05
  2.5122619e-05
  8.8257584e-06
  5.5054039e-05
  1.4916196e-05
 -9.6528947e-06
 -2.7830440e-05
 -3.4641318e-05
 -1.1681872e-05
  9.5817841e-06
 -7.5938269e-06
 -2.4236313e-06
 -9.1083084e-06
 -2.4603880e-05
 -1.7679042e-06
 -3.9218403e-06
  2.5277734e-06
  3.3445493e-05
 -1.0725787e-05
 -1.5620311e-05
 -2.3296398e-06
  2.5609033e-05
  4.8131442e-05
 -7.9760912e-06
  1.6215266e-05
  3.3859451e-05
  1.4880286e-05
 -2.7587735e-06
  4.6363361e-06
  1.6580977e-06
  1.2199283e-05
 -1.2890805e-05
  6.0587986e-06
  1.3214067e-06
 -2.2539312e-05
  2.4239494e-05
  2.3858043e-05
  4.7741046e-06
  1.7957876e-05
 -1.4688984e-05
 -6.7727442e-06
  1.1116890e-05
 -6.1330764e-05
  1.7193561e-06
  8.7702631e-07
  1.3058563e-05
 -8.6602186e-06
 -9.0934136e-06
  1.5802663e-05
  3.9633400e-05
 -1.5239104e-05
 -2.4752146e-05
 -5.5470995e-05
 -7.4320556e-06
 -6.4928783e-05
  4.0042010e-05
  2.3449513e-06
 -1.9782522e-07
  7.8675328e-08
 -2.8341350e-05
 -5.0755689e-06
  1.8038843e-06
 -6.7981555e-06
  2.5082960e-07
  1.1023609e-06
 -2.1417432e-06
 -4.8587990e-05
  2.3168013e-07
 -4.7730409e-05
  6.4623446e-06
 -1.2301087e-05
  6.7026704e-06
 -8.4799676e-06
 -1.5454276e-05
  5.9708314e-06
  6.1714592e-05
 -1.2350712e-05
  2.1998994e-05
 -6.1500859e-06
 -1.5911708e-06
 -2.0505366e-05
  1.8793487e-05
 -1.8688970e-05
 -2.9139654e-05
 -4.2507695e-06
  2.4045032e-05
 -6.0422002e-07
 -3.5483121e-05
 -2.2195786e-06
  2.1900309e-05
 -3.1229922e-07
 -4.1895987e-07
  1.5130427e-05
 -5.5150458e-06
 -2.1887647e-05
 -1.4002920e-05
 -5.2822845e-05
  3.3578850e-05
  3.3954726e-05
 -2.8554759e-05
 -1.5001740e-01
 -1.3489872e+00
 -1.1575902e+00
 -2.4466829e-01
 -2.0546678e-01
  1.6270142e+00
  9.2868853e-01
 -7.0772541e-01
  8.3116345e-02
 -1.7649187e+00
  9.3339078e-02
 -6.3224065e-01
 -3.8376695e-01
 -2.3261152e-02
  1.2842789e-01
 -9.5673338e-02
 -2.1454503e-04
 -3.4552344e-05
 -1.0021681e+00
  5.6190576e-02
 -9.1487467e-02
 -1.2389221e+00
 -1.6767018e+00
  4.3797991e-01
  1.1664909e+00
  9.0568614e-01
  1.3858449e-01
 -6.3259363e-01
  1.5110074e-01
  1.5094956e+00
  3.0305392e-01
  2.5495881e-01
 -4.3016031e-02
  1.7968905e-01
 -3.8427633e-01
 -7.2919804e-01
 -1.0985850e+00
  4.1200405e-01
 -1.1553596e-01
  2.6254326e-01
  3.6366403e+00
 -1.0876256e+00
  4.5039627e-01
  1.7610638e-01
 -2.7217954e-01
  1.2550941e-01
  3.7605000e-01
 -5.3553220e-02
  5.8686906e-01
 -2.1966320e-02
 -4.4573940e-06
  4.6115890e-01
 -1.2184913e-04
  1.3178179e-01
  3.0524663e-03
  3.3866826e-01
 -1.7634942e-01
  7.7112403e-05
  1.0352902e-01
 -1.6376849e-05
  4.4435947e-05
 -8.7624949e-06
 -7.3825317e-03
  1.7828455e-05
  8.3432831e-03
 -5.5020761e-01
  2.9477942e-05
  2.3312035e-05
 -2.2099015e-05
  2.2460366e-05
 -1.8849854e-05
 -7.0144015e-06
 -1.1812151e-04
 -2.7632837e-05
  9.6685699e-06
  9.6413970e-02
 -2.8154553e-05
 -6.4496591e-05
 -3.1091986e-05
 -4.7129265e-06
  2.9714938e-06
  2.0383450e-06
 -7.1462978e-09
  1.7093900e-05
  2.7852336e-06
 -3.5335310e-05
  7.5185631e-06
  5.9198253e-05
 -8.9939440e-06
 -3.9242382e-06
  6.9837479e-05
  3.1425620e-06
 -1.4862020e-06
 -1.7307941e-05
  2.6814108e-05
 -2.3962553e-05
 -9.6179576e-07
 -3.5246974e-06
  1.1916886e-05
 -7.8791658e-05
 -3.4197048e-05
 -1.5058709e-04
 -3.1755353e-05
  7.3230294e-05
 -6.1423759e-07
 -5.3285244e-06
 -5.1932305e-02
 -5.2340229e-06
 -1.3555323e-05
  6.2308385e-04
 -2.2192666e-05
 -1.5110223e-04
 -1.9188548e-05
 -1.7889213e-06
 -2.1810108e-06
  1.8377435e-05
 -3.7939178e-06
  9.7777876e-05
 -2.9677130e-06
  3.1616264e-06
  1.0432377e-02
 -9.3927639e-07
  1.2342232e-06
  1.7273215e-06
 -6.7437099e-06
 -3.3192900e-05
 -2.2691109e-05
  1.0594201e-06
  7.5206558e-06
  2.4631827e-05
  6.0435523e-06
  9.1130732e-06
  2.4345731e-05
  6.8579942e-01
  4.6625200e-01
 -3.1830695e-01
  2.6427089e-05
 -1.9627723e-01
 -2.7149508e-02
  3.8556736e-06
 -1.2002385e-02
  1.7219418e+00
 -7.4193344e-02
 -1.7170511e-02
 -1.8112424e-03
  4.6660912e-01
 -1.2004831e+00
  2.8000969e-02
 -6.5662503e-02
 -1.4057795e-05
 -8.8600320e-01
  2.8358707e-01
  1.8676989e-04
 -9.1554242e-01
  5.2330311e-04
 -4.7187784e-01
 -1.1468338e-05
 -3.8601220e-01
  3.9556983e-01
  1.3028824e+00
  2.8083477e-05
  9.5808911e-01
  3.5219795e-01
 -1.8790875e-05
 -7.3430911e-02
  9.1826366e-03
 -4.0663090e-01
 -1.0826648e+00
  7.8368828e-02
  8.6562345e-03
  3.3952633e-01
 -1.8435194e-03
  4.9040553e-01
  2.0681664e-01
 -1.3839139e-01
 -2.0078602e-01
  1.8637648e-02
  1.5394290e-01
  5.0396812e-03
 -4.8734516e-01
 -2.3096443e-04
 -2.9391703e-01
  2.4896704e-03
 -5.0533470e-02
 -1.1371198e-01
 -1.3091038e-04
 -2.7321887e-01
 -2.8819538e-06
 -1.9043279e-01
 -3.8479200e-05
 -7.2085428e-01
 -3.2469856e-05
 -1.9348518e-03
 -1.1142954e-05
  7.1296048e-01
 -1.5483178e-05
 -1.2805242e-05
 -1.8275777e-01
 -3.0408028e-05
 -7.2106905e-06
  2.4455227e-05
 -1.1048907e-05
  5.4545258e-06
 -1.0068630e-06
 -1.6319489e-05
 -2.2023716e-05
 -6.5381378e-06
  1.0214532e-05
  1.4434959e-04
  2.9186380e-05
 -3.3549186e-05
 -1.3466317e-05
 -3.3638003e-06
 -6.7388964e-06
  4.5202191e-06
 -1.4244356e-05
 -6.8406775e-06
 -6.5372178e-06
 -7.3531925e-07
  5.4153047e-06
  4.0878025e-05
 -5.2203827e-06
 -1.2834355e-05
  3.7481790e-05
  6.6852531e-06
 -4.0477519e-07
 -1.4762678e-05
  3.7698279e-04
  2.7928684e-07
 -9.7460261e-06
 -1.1594862e-05
 -4.0783639e-06
  2.5063719e-06
  1.1726112e-05
  4.0071300e-06
 -5.9064937e-06
 -7.0140254e-06
  3.9830924e-05
  8.4994463e-06
  4.0706836e-06
 -4.3041069e-05
  6.0242542e-07
  9.9806866e-06
  3.1564326e-05
  2.6139360e-05
  6.3472289e-05
  3.7637067e-06
  2.8572329e-06
 -1.8997733e-05
  9.4593051e-06
 -8.2997603e-06
 -3.7192032e-05
 -1.3118235e-05
 -1.6297132e-05
  6.8021036e-06
  4.1390745e-06
  3.8721628e-05
  1.6459875e-05
 -2.4964869e-05
 -2.9318799e-05
 -2.0288358e-05
  1.7193348e-05
  3.2788059e-05
  2.4897015e-06
  1.9456837e-05
  5.8054954e-01
  1.1436206e+00
  9.6152129e-04
  8.6848167e-06
 -7.2216499e-05
 -1.4447297e+00
  7.8450054e-01
 -2.1729439e-01
  9.0370822e-01
 -2.6761198e-01
 -1.1603744e-01
  1.0177239e-01
 -1.1046114e+00
 -3.1296980e-01
 -1.3677598e-04
 -9.4741142e-01
 -5.7263136e-01
 -1.0614289e+00
 -1.6775090e-04
 -5.6480056e-01
  6.4448410e-01
  4.9486616e-01
  2.2942642e-02
 -8.7178189e-01
  3.2497644e-01
 -1.7102890e-05
  9.0776265e-01
 -2.3497210e-05
 -4.8687676e-01
 -5.2170744e-05
  3.2020333e-01
 -6.1763436e-01
  6.1983323e-01
 -2.4051520e-01
 -1.9471014e+00
  1.8913503e+00
 -4.9546082e-02
  7.0304498e-03
  8.9381382e-02
 -4.5879284e-01
 -1.0068927e+00
  1.1578074e+00
  2.9796490e-01
  2.6599399e-04
 -7.8036577e-02
 -6.2263989e-01
  5.0462335e-01
  6.4339089e-01
 -4.9288455e-02
 -1.5753464e-01
  1.0142565e-01
 -5.1248968e-01
  7.1098280e-01
  4.1265380e-02
 -2.3169727e-05
  1.2769400e-04
  2.9157767e-01
  4.7704655e-01
 -1.3288729e-06
  3.0322166e-04
  2.2661181e-06
 -5.9088022e-01
  6.9862836e-05
  3.9178753e-01
  5.2673471e-01
 -6.3623597e-06
 -1.4581398e-06
  1.3298735e-05
 -1.0994967e-05
  3.5570527e-05
 -1.0297535e-05
  9.7088605e-06
  2.4460467e-05
 -6.8030668e-06
  2.9640157e-06
 -1.1662332e-05
 -9.1511560e-05
  2.8115892e-06
 -4.3079774e-05
  9.8134672e-07
  3.7239060e-05
 -4.1206840e-06
 -1.0709346e-06
  6.5699624e-08
  6.1666592e-06
  4.0534982e-05
  4.5223176e-05
  2.1615590e-05
  4.3159566e-06
  1.6449361e-05
  4.8355218e-06
 -2.0943378e-05
  2.3481648e-06
  1.3522910e-05
  1.9015173e-05
  1.5329180e-05
  9.1314378e-06
  6.2646836e-06
 -1.5153001e-05
 -1.0065721e-05
  4.9695518e-05
  1.3151310e-06
 -2.5214027e-05
 -5.6971144e-06
 -3.8091443e-05
 -5.5112887e-06
  6.3834233e-07
 -2.0931897e-05
  3.0111730e-06
 -1.2595222e-05
 -1.1096745e-06
  5.6785057e-06
 -1.7571770e-06
  7.9291804e-06
  5.1513773e-05
  2.7705830e-06
  1.8724333e-05
 -8.0073903e-07
  1.7039258e-05
 -2.5698605e-06
  2.2732004e-06
  1.5236046e-06
 -3.5974415e-05
  1.9020588e-06
 -1.0975979e-05
  1.9905772e-06
  1.7140792e-06
  3.4435339e-05
 -3.3665765e-06
  8.1041335e-06
 -2.4090765e-05
 -6.9395714e-06
 -2.0705220e-04
  2.9322844e-05
  3.4034154e-05
 -2.5747788e-06
  8.7562439e-06
  3.8470671e-06
  9.7697293e-06
  1.7589036e-05
  3.7250643e-06
  8.2915367e-06
 -1.7274726e-05
  3.8333854e-07
  9.8787405e-07
  3.6481586e-05
  4.1973235e-06
  2.7450520e-05
  1.3083735e-05
  6.2073104e-06
 -1.7428958e-05
 -6.9269186e-07
  1.2514338e-05
  3.5665725e-08
 -4.6657173e-05
 -2.2994557e-06
 -3.6395106e-06
  2.5919728e-05
  2.3109451e-05
 -2.8004968e-05
 -1.5228513e-05
 -5.0322564e-05
  1.4319651e-06
  1.7456706e-06
  2.5308078e-05
 -3.4309938e-05
 -2.7116912e-05
 -6.8974427e-06
  2.9907799e-06
  1.8008265e-06
 -5.9829285e-06
 -3.0757164e-05
  7.8010917e-06
  6.5010263e-06
 -1.1331789e-05
 -6.1011356e-06
  1.4363533e-06
 -2.4794485e-06
  4.6426317e-06
  1.2085044e-05
  3.0654153e-06
  4.3724990e-06
  4.8565366e-06
 -1.5672296e-05
  2.1276071e-05
  1.2677787e-06
  5.1597258e-06
 -1.3763068e-05
  5.0667762e-07
 -8.7161534e-06
  1.6882152e-05
 -2.9228272e-07
  1.0454046e-05
  2.0190693e-05
  3.8142623e-08
  1.0250599e-06
  3.4029324e-06
 -1.0957986e-06
  1.8607892e-02
  4.0646908e-01
 -2.6730880e-01
 -6.6414582e-06
 -7.7283630e-06
  1.4821038e-05
  4.0976071e-01
 -4.7066414e-01
  1.8523276e+00
 -9.8551720e-01
  9.4805315e-02
  3.1072141e-05
  2.0824005e-05
 -2.4514958e-01
 -4.7623076e-02
  3.2796426e-05
  2.6504189e-05
  7.5197837e-05
 -7.6493779e-06
  2.0660485e-05
 -6.3173091e-01
 -3.2230016e-02
 -4.6478508e-05
  2.9335180e-05
  4.2531016e-01
  2.1934112e-04
  4.4382177e-04
  4.0614268e-06
  1.0596282e-01
  2.2601489e-04
 -5.8473193e-05
 -1.2308880e-06
  4.3363500e-01
  1.4324328e-01
 -1.5349532e-04
 -3.4201789e-01
 -4.9507523e-01
  7.7441894e-02
  2.5552357e-02
  2.2484777e-02
  2.3549101e-01
 -1.9578702e-05
 -6.6300023e-01
  3.7767895e-04
  2.5013080e-05
 -6.1306365e-02
 -3.5809335e-01
 -1.2948063e-01
 -1.8270293e-01
  7.8325439e-04
 -1.0647373e+00
  2.5945577e-05
 -3.5668792e-05
 -7.1398908e-01
  3.2997402e-04
  3.1330681e-05
 -1.6372715e-05
 -3.6477181e-06
 -3.3318472e-06
 -8.5295496e-06
 -1.5659285e-05
 -1.1991393e-05
 -2.6510968e-05
  3.4777251e-05
 -2.0066099e-03
 -7.0098299e-06
  4.7487557e-02
 -1.4396179e-01
 -5.7615878e-05
 -1.4332332e-05
  2.0998430e-01
  2.1443826e-01
  4.4240363e-04
  2.8793195e-01
 -5.7935778e-02
  9.2255467e-01
 -4.1032337e-02
  5.0055411e-02
 -1.9327142e-04
 -3.4259447e-01
 -3.9961460e-01
  3.5855628e-06
  5.3753076e-05
  6.6502274e-05
  3.6838741e-05
  4.8332366e-01
  5.9045412e-02
 -2.0831482e-02
 -2.5595710e-01
 -3.2300559e-01
 -7.4036676e-03
  2.6540607e-05
  1.7959087e-01
  2.5972413e-06
 -3.6565136e-05
  2.5686750e-01
 -1.3027152e-03
 -4.5617274e-04
 -9.4661862e-01
  4.9286336e-03
  1.0227596e-01
  2.4825355e-01
  1.4403406e-01
  6.1027025e-04
  6.2346794e-02
  7.7606574e-02
  3.4875429e-01
 -1.6966589e-02
  4.2333346e-02
 -7.2797583e-03
 -4.2938271e-01
 -6.0030608e-05
  6.3390754e-02
  3.1303324e-02
  7.7669653e-03
 -1.8900529e-01
  1.8715321e-03
 -4.7073681e-03
 -4.0250247e-06
 -3.7880033e-01
 -1.6504040e-01
 -3.0834381e-05
  3.2835212e-02
 -9.3173790e-01
 -6.8239147e-05
 -1.2766442e-05
  7.8020348e-06
 -3.4355369e-01
  9.4585652e-05
  1.0407767e-04
 -1.5588826e-05
 -2.6707314e-05
 -6.6255433e-07
  1.0258768e-05
  2.2666774e-05
  3.5861829e-06
 -2.4700064e-06
  1.5178804e-05
  2.3929764e-05
 -7.3849137e-06
  7.0838396e-05
  1.7177638e-06
 -6.6250782e-06
 -4.6250701e-05
 -5.9155705e-06
  2.2521253e-05
  6.9012691e-05
 -1.1841146e-05
 -3.2686285e-07
  2.2193650e-05
  5.4604550e-07
 -1.2086453e-05
 -1.4092009e-05
 -6.6127864e-06
 -3.3884367e-06
 -4.0041796e-06
  1.2025244e-05
 -1.4257175e-06
 -3.3488202e-06
  1.6905484e-05
 -2.4778234e-05
  2.9966998e-07
 -6.0847138e-05
 -3.0342537e-05
  1.9098934e-05
 -1.6722457e-05
 -1.3425893e-07
 -8.9665418e-06
 -1.8161312e-05
  9.4247071e-07
  3.9339757e-06
 -2.6366522e-06
 -1.5396532e-05
 -1.9713318e-05
  9.9883914e-07
 -4.7115354e-05
 -1.3641830e-05
 -2.7946255e-05
  2.1227665e-06
 -1.1235860e-05
  1.5960451e-05
  1.9936351e-08
 -2.5996791e-05
  4.3550097e-07
 -1.1735373e-05
  4.0050330e-05
  3.5702298e-05
 -8.2909546e-06
 -1.9629240e-06
 -8.0498296e-08
  9.8773944e-06
  2.4836485e-05
 -2.3217610e-05
 -4.8134607e-06
  1.8638453e-06
  2.1560691e-05
 -3.0175124e-07
  8.6841364e-06
 -1.1638552e+00
 -7.1852249e-01
  6.0862428e-01
  6.7962283e-05
 -1.8714419e-01
 -1.5556778e-01
  5.2688068e-01
 -4.9128116e-06
  1.5265958e+00
 -1.6654585e-01
  4.4191026e-04
  1.7626289e-01
  4.8140794e-02
 -6.5570220e-02
  6.2049991e-01
  5.3277495e-04
  1.7808495e-02
  1.2244188e-01
  1.9971803e-01
  2.5441304e-05
 -2.4032980e-01
 -5.7033252e-02
 -4.0770686e-04
 -9.0988442e-06
  6.5311017e-03
 -1.1644513e-02
 -7.0684984e-02
  6.4637330e-05
 -1.1903233e-01
 -6.8478489e-01
  2.4522260e-05
 -1.7905498e-03
 -5.4575343e-02
  4.1439322e-01
  9.3771636e-01
  2.1704736e-01
  1.2585339e-01
 -8.5917377e-01
 -6.2910294e-05
 -1.3870541e+00
 -1.2893142e-01
 -1.8483655e-01
 -9.9708182e-01
  6.1848396e-01
 -1.4942749e-01
 -1.0606860e+00
 -4.6784062e-02
 -5.6436414e-01
 -2.0290850e-02
 -6.6298954e-02
  4.1470432e-01
 -2.7201462e-01
 -1.7545150e-06
 -4.9089384e-01
 -1.5778875e-01
  1.6512604e-05
 -1.4382945e-06
 -2.3123503e-06
  1.8839813e-04
  1.9098115e-05
  9.5308349e-07
  4.0740812e-01
  6.4567885e-06
 -2.8764903e-06
  1.8855547e-04
  2.5755797e-05
 -7.2290832e-03
 -1.6385301e+00
  3.4102883e-05
 -8.6245227e-06
 -4.0832910e-04
  7.5558126e-02
 -1.1148295e-01
  3.3860901e-01
 -3.0967367e+00
  4.8500065e-02
 -6.8311766e-02
 -4.0475035e-01
  1.2381893e-01
  5.7019424e-01
  3.1738585e-01
  3.5941705e-06
 -4.4200266e-07
  9.8471791e-01
  9.0355752e-05
  1.2757845e-04
  2.4592881e-01
  4.9131203e-02
  6.6089623e-02
 -1.1914685e-04
 -4.3735257e-01
 -1.9774929e-02
 -1.3281897e-01
  4.3309610e-05
 -2.9199675e-01
  2.3701252e-06
  1.1437753e-05
  8.2684278e-02
  2.0454693e+00
  3.9408901e-01
  8.3887661e-01
  7.6447062e-02
 -4.3108735e-02
  1.1438650e-02
 -9.7396132e-04
  2.0551199e-01
  1.9705491e+00
  8.2115272e-05
  1.5388476e-02
 -4.1701645e-05
 -3.3409634e-01
 -4.5355223e-06
  1.3495146e+00
  3.7710757e-05
  4.2367736e-01
  5.4798784e-06
  4.3810901e-01
  2.9946342e-03
 -1.5500967e-05
 -8.0751199e-01
 -4.4946137e-06
 -7.2220377e-05
 -2.3185821e-04
  1.0523865e-01
  1.3594722e-04
  1.2345058e-01
 -3.5058049e-06
 -1.3498767e-01
  2.1522410e-06
 -2.2565847e-04
 -7.6879660e-05
  5.4148750e-06
  5.6609688e-06
  3.8159110e-06
 -1.9612222e-05
  4.1740073e-05
  2.2051496e-05
  9.5529258e-06
 -1.4563834e-06
 -1.8522198e-06
  1.1113730e-05
 -1.1107964e-05
 -3.7589765e-05
  1.2160917e-06
 -1.5662179e-05
  2.0812834e-06
  1.3698200e-05
  8.8861843e-06
  2.9715841e-06
  5.4114012e-06
 -8.5689971e-06
 -3.6219024e-07
  1.5974336e-05
  2.0621685e-05
 -8.9816976e-06
  3.7958849e-05
 -1.3379444e-05
  4.7373005e-06
  1.0722479e-06
 -6.4364945e-06
  7.0957312e-06
  1.9634632e-05
 -3.8629705e-06
 -3.0299958e-07
 -2.7577637e-05
 -2.6705823e-07
  2.2878576e-06
  3.5035395e-05
  7.5136850e-06
 -1.8740309e-05
  2.1830805e-05
 -2.2833624e-04
 -5.9782501e-06
 -4.6098976e-05
  9.7759685e-06
 -1.7497393e-06
 -7.1052284e-08
  6.8853969e-06
 -2.2080307e-05
 -1.5489404e-05
 -1.1569422e-04
 -3.2761254e-05
 -2.0950636e-06
 -5.2362384e-06
 -4.9830383e-06
 -1.7179955e-05
  2.1748649e-06
 -1.6940316e-05
  3.3541110e-05
  3.7818638e-05
 -3.1009920e-05
 -2.9078061e-05
  6.2437339e-06
 -3.6090944e-06
 -5.0732406e-06
 -2.4847034e-07
 -5.6297581e-06
  1.2876585e-05
 -2.6105649e-06
  1.4624851e-04
 -6.3070047e-06
  1.0909791e-04
  5.3251813e-07
  7.8376976e-04
  4.8751585e-04
 -1.8720544e-05
  4.3623665e-01
 -1.5983822e-05
 -9.5899031e-07
 -2.3138260e-05
  3.6870508e-05
  8.6221789e-06
  1.3021436e-03
 -1.4859613e-05
  1.9164294e-05
 -1.7770711e-06
  1.3678975e-05
  2.2690740e-05
 -2.5550095e-02
  2.5839054e-05
  6.4065454e-05
  5.2443276e-05
 -8.3207115e-06
 -4.1169242e-06
 -7.2903686e-06
  1.0948920e-06
  2.8368004e-05
 -5.9150352e-05
 -2.4265135e-05
  2.7657594e-05
 -1.2427988e-02
 -1.0668783e-02
  2.2859755e-04
 -8.7254071e-01
 -8.8887764e-06
 -7.3159597e-04
 -7.1137954e-05
  6.8711624e-02
 -1.4892157e-05
 -5.5157557e-06
 -3.9017301e-03
  6.9203099e-07
 -6.7430745e-05
  3.7604661e-06
  1.4054017e-01
  9.2314600e-05
  5.4552384e-02
 -1.7649416e-05
  4.5105512e-06
  3.6393238e-05
  6.5587892e-06
 -5.2724726e-02
 -2.8078925e-06
  4.7631820e-05
 -7.1156865e-05
  6.9378191e-05
  6.7735277e-06
  3.6305406e-05
  3.1532705e-05
  3.3197307e-06
 -1.1773487e-06
 -3.6689147e-05
 -6.1183823e-06
 -1.2659990e-05
  5.5936426e-01
  6.4075786e-01
  8.9908361e-05
 -4.6701816e-06
 -2.2659381e-01
 -1.8118874e+00
 -1.2506925e-01
 -6.7433184e-03
 -3.3922472e+00
 -1.3122529e+00
 -1.8512958e-01
 -4.9262326e-02
  2.4929948e-06
  5.4748630e-04
 -3.4421821e-05
 -2.2488525e-03
  3.7298803e-05
  4.6553481e-01
 -5.1397104e-02
 -2.3112367e-03
  1.9310954e+00
  7.7368505e-02
  8.2410134e-02
  2.0434243e-06
  9.7827053e-01
  2.4914899e-01
  1.1808136e-06
 -9.3440494e-06
  3.4625483e-01
  6.8066460e-05
 -3.2315744e-05
  1.4939635e+00
 -5.9560299e-01
 -3.2762229e-01
 -9.6017802e-01
 -1.5151513e-01
  5.2037340e-01
  3.9366397e-01
  1.6861180e-04
 -5.8592051e-01
  8.5915297e-01
 -1.4281881e-04
 -2.4371274e-01
  8.5014209e-02
 -1.0022935e-01
 -9.2101097e-01
 -6.1485112e-01
  1.0176919e+00
  3.1639200e-01
 -4.5487881e-02
 -1.4865826e-02
 -6.8425673e-01
 -2.2626455e-05
  6.2608845e-03
 -1.6260072e-05
 -5.2599376e-01
  3.2563734e-05
 -8.3165210e-01
 -1.1282876e-04
  2.6283653e-05
  1.8162840e-05
 -8.5229849e-06
  9.7125521e-06
  5.7075845e-06
  1.0209803e-05
 -6.2361524e-02
  1.6188531e+00
 -4.2346399e-02
  1.1656883e-05
 -2.8855170e-04
 -8.9601263e-02
  7.5288665e-01
  7.6691157e-01
  8.9665812e-01
 -1.4922450e+00
  3.5398540e-01
 -2.4354434e-01
 -1.7325647e-01
  1.7197779e-01
 -6.4256078e-01
 -2.8825742e-01
  1.6304442e+00
 -4.4566172e-04
  1.0342788e+00
  1.4354851e+00
 -1.3674167e-01
  4.3986332e-01
 -4.5058075e-01
  2.0283398e-01
  3.3824652e-02
 -7.2337326e-04
 -4.0667332e-05
  1.2698739e+00
 -1.0621721e-01
  6.9445521e-01
  1.0630448e-02
  4.1657045e-02
  6.0912043e-01
  1.0895611e+00
 -7.1745142e-03
  1.2500305e-01
  2.9691157e-01
  4.9461931e-02
 -6.4058532e-03
 -3.3440366e-01
 -2.0445126e-01
  1.0335503e+00
  1.2914180e+00
 -7.8292912e-01
  3.7737107e-01
  2.4676688e-02
  5.2474183e-03
  1.5940747e-01
  2.9456841e-02
  5.7446945e-01
 -2.3791470e-01
 -6.4217269e-01
 -1.0077825e-02
  9.6624773e-03
  4.6690375e-02
 -9.0928170e-06
  4.2338142e-01
  5.5788003e-04
 -1.7317880e-03
 -3.6636293e-01
 -5.8862966e-01
  1.6062371e-05
  2.0729169e-01
  1.2605475e-01
  7.5836442e-03
  8.7238699e-01
  6.7978406e-05
 -2.1292526e-05
 -3.0674559e-01
 -1.6748099e-05
  1.2847804e-04
  2.6563755e-05
  2.8784147e-01
 -5.6529436e-02
 -1.9135958e-07
 -5.2809674e-01
  2.0328273e-04
  5.3927924e-02
  1.5480267e-01
  7.1689892e-06
 -1.7817740e-05
  5.7894904e-03
 -4.4580975e-06
  9.2617753e-05
  2.1105463e-05
 -5.9748222e-06
  9.8206248e-05
 -2.9585308e-01
  1.7587055e-05
  1.6175201e-05
  7.0950009e-02
 -6.6684610e-05
 -2.0316547e-07
  5.1050802e-06
 -2.2797711e-05
  1.1778515e-01
 -1.6039436e-05
 -1.0027898e-05
  6.2316842e-02
  1.1062533e-01
 -1.7074232e-08
 -3.4757279e-05
 -3.5533261e-01
 -1.2263574e-05
 -4.9654017e-03
 -1.9938145e-06
 -8.4998244e-01
 -6.4196740e-04
 -9.7970051e-06
  8.3287708e-02
 -2.7370667e-02
 -2.4333117e-03
  1.3214028e-01
  1.5262171e-05
 -1.1698449e-06
  4.3716453e-05
 -8.5367501e-06
 -3.2146296e-03
  3.0082583e-05
 -2.6157234e-06
  4.3565307e-02
  6.3908592e-05
  7.3736314e-06
 -4.3021268e-05
  1.3173255e-01
  6.3667372e-05
 -4.0813335e-05
  5.9535290e-07
  5.0663410e-05
 -7.5661492e-06
 -4.4185713e-06
 -4.0920540e-06
 -6.7233773e-06
  1.1465260e+00
  8.3127439e-01
 -2.9257798e-01
  2.7874735e-06
  5.2836698e-01
 -2.8961020e-02
  2.0537667e-02
 -3.1153746e-03
  3.0406842e+00
 -1.5180545e+00
  1.3731496e-04
  3.1769478e-01
  7.2553229e-01
 -1.0196569e+00
 -3.0788376e-06
 -7.0400625e-01
  1.0018916e-06
  8.9113206e-01
  2.8118193e-01
  5.7578474e-01
 -1.8823928e-01
 -1.1073592e-04
 -8.1113988e-01
  1.2372507e+00
 -4.3306459e-02
  2.1527459e-01
  6.6442424e-01
 -1.9840340e-04
  1.4543083e+00
  2.8374321e-05
 -3.2817778e-05
 -5.3763324e-01
 -1.1792518e-04
 -1.3077429e-01
 -7.5961286e-01
 -5.4608911e-01
  6.9044524e-01
  8.7701529e-01
 -4.5774177e-06
  1.3905489e+00
 -5.4450344e-02
  8.8665896e-05
  3.6275499e-02
  5.2311294e-02
  2.4754758e-01
  5.1654178e-01
  1.0544604e-01
  6.5099875e-06
  9.3617924e-02
  4.6030429e-05
 -1.7981172e-01
  6.6325074e-04
  3.5691921e-02
  1.0410384e+00
 -8.3867883e-07
 -1.8853445e-02
 -3.6245779e-05
  1.0774867e-01
  6.6762663e-02
  3.7298407e-02
  2.1945891e-05
 -1.8402126e-01
 -3.1771613e-03
  3.9223769e-06
 -2.7540344e-01
 -5.2431542e-06
 -4.7048379e-05
 -5.2966525e-06
 -6.4131150e-06
 -1.4484657e-06
  3.0672913e-05
  1.6189351e-05
  8.4402518e-06
  2.0289655e-05
  7.5918279e-06
  8.4642252e-06
  2.7500582e-06
  7.2516295e-06
  9.7267571e-07
 -3.0832271e-05
 -2.8817894e-05
 -1.1780976e-06
 -1.8459946e-06
 -3.4987544e-05
 -3.1542619e-05
  2.8187628e-06
 -1.7334041e-05
  1.0074675e-06
 -7.6133856e-06
  5.9897106e-06
 -1.7681693e-06
 -2.9156126e-05
  3.2243184e-05
  2.5909092e-06
  1.9628646e-05
 -4.4009084e-06
 -6.9748812e-06
  3.1053071e-07
 -5.0638228e-06
 -8.1518911e-06
 -6.3626703e-06
 -1.1777604e-05
  1.7069833e-06
  1.7547763e-05
 -3.5395431e-05
  4.9007122e-07
  2.7617532e-06
 -2.3719069e-05
  9.2332757e-06
  1.0074461e-05
  4.3093110e-05
 -2.6760142e-06
 -1.1538522e-05
 -1.9899258e-05
  8.9447176e-06
 -2.0408156e-06
 -5.7122197e-06
  3.1420823e-05
 -1.9254445e-05
 -2.0165608e-05
  3.0201707e-05
 -8.4507042e-07
  3.3505712e-06
 -4.8559532e-06
 -9.7978063e-06
 -3.8036515e-06
 -2.9646573e-05
  2.2119513e-05
  2.2676311e-06
  2.8045938e-06
  5.8109231e-07
 -3.2002201e-05
 -4.5206943e-06
 -2.3235948e-06
 -1.0241123e-05
  3.1713264e-06
 -4.4931298e-06
  3.1349769e-05
 -3.6823840e-06
  1.2885137e-04
  1.3915168e-05
 -4.1221601e-06
 -3.1200991e-05
  1.8636656e-05
  1.9618537e-06
 -4.4327404e-05
 -8.6001671e-07
  8.4740241e-06
  6.6896018e-06
 -9.3143433e-07
  2.9359730e-06
 -2.1013448e-05
  5.2146997e-06
  1.2951385e-05
 -5.5884548e-06
 -3.0380234e-05
 -1.5971982e-05
 -1.7461332e-06
  1.2489484e-04
  4.0893624e-06
 -4.4750227e-06
 -2.4490396e-06
  4.3403370e-06
 -7.8656149e-06
 -6.6530214e-05
  2.1788353e-05
 -3.3760548e-06
  3.4536275e-05
  5.6448612e-06
 -7.5381124e-08
  2.2766859e-05
  2.0045562e-05
 -1.1007687e-07
  1.5405294e-06
 -1.1444983e-05
  3.6070976e-06
 -1.1546297e-05
  1.9962040e-06
 -1.5458520e-05
 -1.9032406e-06
  2.7092383e-05
 -5.2182433e-05
 -3.6794092e-06
 -6.9206268e-05
  1.9476711e-06
 -8.8335164e-06
  2.2326831e-05
  4.1357831e-05
 -4.2344627e-06
  4.8010490e-05
  5.8453559e-05
 -5.3839809e-05
  9.4506941e-06
 -1.6974389e-05
  3.4814944e-05
 -8.2831242e-08
 -6.1675260e-06
 -3.6377296e-05
 -8.1803866e-02
  5.8510673e-01
  4.5472088e-06
 -2.3762032e-06
 -6.8221098e-01
 -5.2777493e-01
  1.9011402e-01
 -4.3859300e-03
 -3.7242491e-02
 -5.4969853e-03
  2.7644706e-01
  5.9727806e-01
 -1.1720401e-04
 -2.9831478e-01
 -3.1289876e-01
  4.2428598e-02
 -1.2311509e-05
 -6.6903070e-02
  5.0215244e-06
  3.5374142e-05
 -6.7343717e-03
 -6.2238097e-01
  9.4826808e-03
  1.8791948e-01
  1.5743800e-01
 -1.5032291e-04
 -7.4541640e-01
  2.5125075e-05
 -2.9282732e-02
  4.0227205e-02
 -1.2022643e-05
 -1.1389402e-01
  4.8455566e-01
  2.8219697e-01
 -8.1692748e-02
 -1.8315339e-01
 -2.0923416e-01
 -1.8456118e-01
 -2.5710082e-02
 -1.0587459e+00
 -3.6720242e-02
  1.9049539e-03
  5.5653864e-01
 -1.8243374e-05
 -1.6727272e-02
  2.9156455e-01
  6.1671633e-02
  1.5531594e-01
  2.1676539e-01
 -3.3593114e-06
 -3.9817673e-01
 -9.8174249e-05
  6.2254652e-02
  3.1872073e-01
  2.0335512e-01
 -7.8903677e-06
 -2.3494600e-05
 -1.0541203e-01
 -1.1720595e-01
 -1.1887658e-01
 -1.4707010e-05
  4.5168458e-06
  2.7248070e-05
  9.8316035e-05
 -9.7634807e-02
 -3.2947849e-02
 -3.5556698e-01
 -3.8215622e-02
 -2.7567017e-01
 -1.2703083e-04
  1.5194201e+00
  1.8062846e-06
 -5.3323754e-03
  2.2726391e-02
  3.0336666e-01
  1.0784783e+00
 -2.2979961e-01
  5.8647901e-01
 -3.5872450e-05
 -3.5035595e-01
 -1.1646779e-04
 -1.3256747e-02
 -1.5283573e-05
 -6.1258978e-01
 -3.1851605e-01
  1.9238904e-01
  7.9694253e-01
 -1.1908405e+00
 -1.4702573e-01
  3.2013366e-01
 -4.1702185e-02
 -1.0779198e-02
 -8.5727233e-01
 -2.9184449e-01
  1.5349555e-02
 -5.9503794e-01
  2.5177594e-06
  8.0369577e-02
  5.6798244e-01
 -9.6742645e-02
  3.7225953e-01
 -2.2107707e-02
 -4.8902675e-06
 -1.3843089e-01
  1.6519552e-02
 -2.1434256e-03
  7.4328989e-01
  3.1186110e-01
  3.5554758e-01
 -1.0625760e-01
  1.0754266e-01
  3.0213517e-01
 -1.2241827e-01
  2.3394008e-03
 -2.4196544e-01
 -2.1529546e-05
 -1.5133794e-01
 -8.6418995e-06
  1.0651444e-05
 -1.2572864e-01
  1.0517437e-04
 -8.3410278e-06
 -2.1962145e-05
  1.9865967e-01
  1.5728941e-05
 -1.0282462e-01
 -5.3949290e-05
  1.1718612e-01
 -7.1406221e-06
 -4.3405995e-05
  7.4007337e-05
  3.6029699e-06
 -7.6390997e-06
 -1.9822005e-06
 -6.3589614e-05
  9.2295404e-06
  8.7470607e-06
  8.3898658e-06
 -8.1611994e-05
  6.7977380e-05
 -9.0638341e-06
 -1.1901540e-05
  1.3262828e-04
 -1.5264448e-05
  2.0522933e-05
 -9.4205425e-06
 -1.1203962e-05
  3.4870623e-05
 -8.0985119e-06
 -2.9205753e-06
  3.3642318e-05
 -5.9679992e-06
  5.0831090e-06
 -1.5070756e-05
 -7.9666115e-06
 -1.9820112e-05
  1.3282941e-05
  6.4356082e-06
 -3.1259592e-06
 -4.2368288e-06
  1.8753253e-05
  3.5740136e-06
  1.9774332e-05
 -1.3765563e-05
  1.4988868e-05
 -1.4691173e-05
 -8.5876054e-06
  3.1735432e-05
  7.6599736e-06
  5.6614581e-06
  1.8152232e-05
  1.2734878e-05
  3.3325282e-06
 -2.0897487e-05
  9.1150732e-06
 -2.1508667e-05
  2.7559979e-06
 -2.2310815e-05
 -1.0227072e-05
 -2.9305056e-05
  6.9407720e-06
 -1.5827762e-05
 -1.9334026e-05
 -5.1753032e-06
 -1.8413899e-05
 -7.5508360e-06
 -5.0625804e-05
  2.6765292e-06
 -5.0121453e-06
 -2.6682139e-05
 -1.0653254e-05
  2.3383168e-06
 -9.2019400e-06
 -5.7844800e-06
 -2.0102296e-05
 -1.8944853e-05
  7.6766673e-07
  2.8466249e-05
 -1.0801268e-01
  5.0096985e-02
  2.5949425e-01
  1.2775412e-04
 -8.3777025e-02
  2.2173475e-01
  2.7350121e-04
  2.0523312e-02
 -2.1187939e-01
  1.5467954e-01
 -3.4308421e-06
  2.4713324e-01
  5.9854883e-01
 -2.1695642e-01
  4.7276488e-01
  1.0937920e+00
  4.1875685e-09
  3.4373406e-01
  6.6060442e-01
  3.7620783e-01
  1.6716765e-01
  2.0652930e-01
 -1.3333556e-03
  4.6232090e-05
 -1.2496235e+00
 -2.5894207e-05
 -2.7537612e-07
  8.2883418e-02
 -4.5974521e-05
  5.9876165e-05
  4.5288301e-01
 -7.9999946e-04
 -4.6707122e-03
 -2.2514735e-01
 -9.0018265e-02
  3.4007911e-02
 -2.8006360e-04
 -2.0428699e-02
 -1.6335404e-02
 -1.6861241e-01
 -1.2790634e-01
 -1.8240402e-05
  9.0924215e-01
 -8.0551666e-01
 -3.0693112e-02
  4.1054642e-01
  1.4297551e-01
 -3.2988232e-01
  4.3253163e-03
 -1.3003073e-02
 -2.8234443e-01
 -7.4946582e-02
  2.0856962e-01
 -3.4083861e-01
 -4.7279300e-05
  2.5217646e-01
 -5.7114717e-05
  4.3266799e-04
  1.9902465e-05
 -3.6653317e-05
  3.4316981e-06
  7.3911366e-04
 -1.0402732e-05
 -3.4809826e-05
  2.0293668e-01
 -1.1171651e-05
 -1.0132961e+00
  8.8950211e-01
 -3.3773810e-01
  6.3283533e-02
  6.0183626e-01
  1.0237405e+00
  9.1204685e-01
 -1.9942841e-01
  2.7606515e-02
 -1.4076881e-01
  9.8142542e-02
 -1.5888812e-02
  1.2718396e+00
 -2.6435328e-01
  6.0049995e-05
  1.7480195e-01
 -1.7141467e-02
 -2.6422730e-01
  4.6844427e-03
  5.8793324e-01
  1.1760556e+00
  5.3431237e-01
  3.2613593e-01
  1.6212389e-02
 -5.5817652e-02
 -5.3549875e-02
  4.8161019e-02
  1.6244951e-01
 -4.2265990e-01
 -4.4957120e-02
  6.6961005e-02
 -2.5400084e-02
 -5.8521274e-02
  3.6702988e-01
  5.8362120e-01
  3.2698694e-01
 -3.7672296e-01
 -1.8519783e-02
 -3.6554897e-04
 -4.9167755e-01
 -5.4673100e-01
 -2.6421449e-06
  4.8444401e-02
 -2.1660322e-02
 -2.8848866e-01
  9.4147396e-01
 -9.7479440e-02
  2.0332966e-02
  3.2514364e-02
  1.2317579e-01
  3.4106159e-01
 -5.9547359e-01
  3.9206341e-05
  3.2280567e-01
  4.7887538e-02
  3.0096945e-01
 -1.2209999e-01
  9.5957726e-02
  1.0149767e-04
 -1.0133187e-01
  1.4713354e-05
  9.6701342e-01
 -1.1666737e-01
 -2.9115246e-05
  3.4190148e-02
  1.5552074e-05
  2.2746294e-03
 -2.6241285e-01
 -2.1879192e-01
  1.1366388e-05
 -6.3429397e-05
 -1.5421022e+00
  2.9404911e-01
  1.4978476e-05
  2.8148288e-01
 -3.1852946e-02
  1.2906713e-05
  1.0227434e-01
 -8.5740739e-06
 -7.5745754e-02
 -2.6209405e-01
  3.0299237e-01
  3.4575336e-05
  6.1283231e-08
  3.4771665e-06
 -2.8099012e-01
 -4.8252019e-01
 -3.6129504e-02
  4.5878454e-03
 -1.1200182e-01
 -2.8636109e-02
 -1.1105310e-05
 -3.9611539e-01
 -8.5430802e-05
 -7.3911130e-01
 -5.9243359e-07
 -2.1542385e-01
  1.2216888e-01
  9.1236752e-01
  3.5409126e-02
 -1.5865934e+00
 -5.7704681e-01
  9.3869966e-01
 -4.0890840e-01
  9.4192405e-04
 -9.4807351e-01
  9.9619883e-01
 -3.9237851e-01
  6.6296959e-01
 -1.3304439e+00
 -6.1148865e-04
 -6.0881097e-02
 -3.2146806e-01
  8.8026837e-02
 -8.1897050e-01
 -5.5989865e-03
  2.2738044e+00
 -7.4589606e-03
 -7.3064240e-03
 -3.9958730e-01
 -1.2311892e-05
 -1.3086524e-04
  3.5841091e-05
 -4.7232962e-01
 -8.1369099e-06
  1.1947918e-03
 -2.1996143e-06
 -2.2535813e-01
  1.8977702e-05
 -3.8665653e-06
 -1.6497562e-04
  9.5814448e-06
 -1.7997952e-05
  3.2706635e-06
  1.0995269e-05
  3.6387086e-05
 -2.5943330e-06
 -7.3292676e-07
  1.2857381e-06
  2.8120681e-05
  6.1506889e-06
 -1.6739604e-06
  1.0078717e-06
 -4.9725131e-06
 -4.8097804e-06
 -1.5110954e-05
 -1.2431117e-05
 -1.0234395e-04
 -7.1218610e-06
  1.0308276e-05
 -3.5959139e-05
  3.4325985e-06
 -1.6478650e-06
  1.9135832e-05
  7.3176903e-07
  1.4688582e-05
  1.1496964e-05
 -3.3283472e-06
  1.0340023e-05
  7.5229313e-05
  7.6386923e-06
  1.0652629e-05
  7.4601203e-06
 -7.3281835e-06
 -1.3011532e-05
 -4.1311923e-06
 -3.9146238e-05
  9.6914318e-06
  6.6686393e-06
 -2.5094299e-05
  1.3176011e-06
  3.6263511e-05
  4.1701838e-05
  1.2264684e-05
  5.7425182e-06
  7.3413230e-06
  2.3206268e-04
  3.0776529e-05
  1.0518223e-05
 -8.5309202e-06
 -1.9230431e-06
 -7.1823779e-06
 -4.0383831e-05
 -2.0348685e-05
 -3.0999414e-05
  1.2323531e-05
  1.2185041e-05
 -2.8545016e-06
 -1.2665708e-05
 -3.8455208e-05
  2.1226728e-05
  7.2584103e-06
 -1.0556904e-05
  3.6890613e-06
 -2.7385813e-06
 -6.0125217e-06
  9.1846969e-06
 -1.2300428e-05
 -3.8457752e-06
 -9.0765043e-06
 -1.0914382e-05
  6.9510825e-06
  7.4385202e-06
  9.5792027e-05
 -1.4069448e-05
  1.3163743e-05
 -1.2544513e-05
  3.3231983e-05
 -3.8666520e-05
  1.4238725e-05
 -1.4427216e-05
  4.8559000e-06
  2.7345318e-06
  1.9842698e-06
  1.7586506e-05
  4.3982600e-06
 -4.0706764e-06
  1.0158134e-05
 -2.1442527e-05
 -2.1098575e-05
  4.1497977e-05
  1.1240701e-05
  7.5888660e-05
  1.5668551e-05
  9.5701562e-06
  1.6497080e-04
  3.9767474e-05
  3.5235939e-06
  8.6575992e-06
  1.1301434e-05
 -5.7153848e-06
  6.8457142e-05
  1.0889263e-05
  6.1592791e-06
 -9.7285329e-06
  7.2927264e-06
 -5.8421897e-06
  4.4709186e-06
  9.8666206e-08
 -4.5589684e-05
  1.2716445e-05
 -9.4480708e-07
 -4.0130533e-05
 -1.2743079e-05
  9.4797397e-06
 -9.0659396e-06
  2.6153612e-05
  1.9437361e-05
  8.6100326e-06
 -6.7530568e-06
 -1.2921274e-05
 -1.5021720e-05
  1.5694854e-05
 -1.2948562e-05
  1.6149237e-06
 -3.5859539e-06
 -1.1687185e-05
  2.7578517e-06
  3.5904755e-05
  1.1414730e-05
  1.4476009e-05
  1.4518030e-05
 -6.8240220e-06
  9.1779300e-05
 -1.0495154e-05
  1.2187901e-05
  2.4616984e-06
 -1.1576299e-05
  2.7108943e-06
  3.5016267e-06
 -1.7168468e-06
 -6.9566731e-06
 -1.1088803e-05
  3.9285533e-05
  1.0814460e-05
 -1.1456863e-05
  4.2233714e-06
  4.4951794e-05
  5.9118065e-07
 -3.0747965e-06
  1.2324630e-05
  9.5663663e-06
 -3.0201514e-05
  3.8446638e-06
 -3.5531098e-08
 -2.8149625e-05
 -5.1689399e-06
  2.1663236e-05
  1.6574975e-06
 -6.7724582e-06
  7.5557250e-06
  9.4799052e-06
  1.1571494e-06
  2.6187496e-05
 -7.5306671e-05
  3.8923910e-05
  3.9742969e-05
  1.0823326e-05
  6.3170482e-06
  1.2485386e-05
 -4.9932833e-06
 -2.0246534e-06
  1.0224458e-05
 -4.5636507e-06
 -1.1607011e-05
  1.1705687e-05
 -2.8760771e-06
  3.9025474e-07
 -1.4549580e-05
  6.0884204e-06
 -1.1000652e-05
 -4.4514116e-05
  1.4189933e-05
  1.1129107e-06
 -2.1932965e-06
  1.2330195e-05
  3.1518208e-05
 -1.5044013e-05
  2.3973429e-05
  2.4333691e-05
 -8.2680399e-06
 -1.2940012e-05
  4.1326261e-06
 -1.1261318e-05
 -3.5794795e-07
  1.7906808e-05
  5.1938478e-06
  8.5955626e-06
 -8.4821677e-06
  1.5188103e-05
 -9.7439697e-05
  4.3292956e-05
  3.0605919e-05
  6.1196638e-06
  1.3773807e-05
 -1.5480553e-07
  1.2915037e-05
 -8.4805188e-06
  3.8411203e-05
 -1.7717351e-06
 -1.3686086e-05
 -1.4792259e-05
  3.1303546e-06
 -1.0319882e-05
  1.5693959e-06
  8.3260566e-06
  1.4037631e-05
  1.7973160e-06
 -5.6018689e-06
  2.3466268e-06
 -1.6823116e-05
 -1.6684058e-05
  3.9390648e-05
 -8.6411555e-06
  1.3081019e-05
  4.6976284e-06
 -5.1633806e-06
  1.4363908e-05
 -2.8757763e-06
 -4.0265193e-05
  1.3498538e-05
 -9.0846706e-06
 -6.1238793e-06
  1.2215488e-05
  1.8939247e-05
 -1.5112615e-05
 -5.4355864e-06
  1.4860512e-05
 -1.5037625e-05
  2.5842008e-05
 -1.2940906e-05
 -8.8937770e-05
  1.2076827e-05
  1.1434175e-06
  2.6031189e-06
  1.0220814e-05
  7.5678417e-07
 -2.3466730e-06
  3.2843245e-06
 -2.3618149e-06
 -2.8133675e-06
 -9.9288491e-06
  5.0046465e-06
  3.0016361e-06
  1.1276433e-05
 -1.0522877e-05
  1.9174440e-05
 -1.0163069e-05
  5.0357035e-06
  5.9048489e-08
 -4.5294324e-05
  1.9149913e-06
  1.4364302e-05
 -6.3296966e-06
  2.4369542e-06
  5.1370721e-06
  1.0536067e-05
  1.2223397e-05
  4.8383231e-06
 -1.3905905e-05
  3.7672014e-06
  1.3914368e-05
  8.5970132e-06
 -5.2188570e-05
 -8.4679486e-06
 -8.1961070e-06
 -4.3321641e-05
 -8.0492446e-06
 -5.6957032e-07
 -1.0309680e-05
 -1.3952168e-05
 -1.5047531e-05
  1.6282025e-05
  1.3032964e-05
 -6.7032925e-05
  8.7444241e-06
  9.1414367e-06
  1.2577026e-05
  3.2682781e-06
 -3.7617315e-07
  1.0702351e-05
  3.3893737e-06
 -1.2666073e-05
  2.1885320e-05
  1.2484684e-05
  7.2117646e-06
  1.4912109e-05
  3.3026692e-05
 -6.9627014e-05
 -8.7765184e-06
 -1.3525168e-05
 -1.3288428e-05
  8.2440274e-06
 -2.6383383e-05
 -1.6296638e-06
 -8.8017487e-06
 -8.9864182e-07
  2.8839870e-06
  1.2197526e-05
 -6.3570751e-06
  7.1201002e-06
  1.2504856e-05
  6.9637623e-05
 -1.5247350e-05
  8.8535662e-06
 -7.9306874e-06
  1.4952235e-05
 -4.5242712e-05
  1.4614530e-05
  8.0235977e-06
 -1.0872264e-05
 -5.7483148e-06
 -1.4389650e-05
 -1.5642662e-06
 -4.8102825e-06
  6.7462672e-05
  1.9428762e-05
  7.9771562e-06
  1.3824546e-05
 -4.3641896e-05
 -3.7485715e-05
  1.3039260e-05
  1.6524115e-07
 -5.0886042e-06
  7.5518869e-06
  1.1718674e-05
 -6.3268599e-06
  4.5541433e-06
  5.8570972e-06
  4.9307851e-05
 -8.6549180e-06
  2.9335338e-06
  2.3617345e-06
  1.3333605e-05
  1.4504211e-05
 -7.0107768e-07
 -1.0235875e-04
  3.4819237e-05
 -6.1136966e-06
 -9.5829164e-06
 -7.4695158e-06
 -1.4055266e-05
 -3.5078635e-06
  8.5664578e-06
 -2.1412190e-05
  1.4082346e-05
 -1.0798191e-05
  6.1197341e-07
  2.4485256e-05
  3.1916843e-05
 -7.9618994e-06
 -9.4465240e-06
 -2.3987126e-05
 -8.4740641e-06
  1.4161873e-05
 -1.8683424e-05
 -4.8454418e-05
  1.3577083e-05
 -4.3447799e-05
  4.0627987e-05
 -1.2222633e-05
  9.8770297e-06
  3.3295226e-05
  1.4943818e-05
  7.3967362e-07
  4.0241403e-06
  5.9480476e-06
 -3.0139902e-06
  5.5142518e-06
 -2.7093292e-06
 -9.6308358e-06
 -1.3787740e-05
 -1.5517335e-06
 -2.2101535e-06
  5.1347597e-06
 -3.9225444e-05
 -1.6843020e-06
  3.6357648e-07
  1.4627614e-05
 -6.2312470e-06
  1.2229640e-05
  1.0894424e-05
 -1.5050982e-05
 -1.0565053e-06
  4.4317865e-05
 -1.2304180e-05
 -8.8273491e-06
  2.6905626e-01
  5.9898049e-01
 -3.0162504e+00
 -2.4384851e-06
 -5.7289344e-03
  4.1959067e-03
 -1.4641805e-04
  1.4719728e+00
  6.0024923e-01
  2.1344562e-07
  1.3738583e+00
  2.1723197e-05
 -5.0524014e-01
 -4.5290116e-02
 -3.4141195e-01
 -6.7120916e-01
  2.1656752e-01
  6.1203834e-02
  9.4785058e-01
  5.4816526e-01
  8.4864600e-03
  4.5091361e-01
 -1.1274033e-01
  6.8747693e-01
 -1.1045549e+00
 -8.4924996e-01
 -4.6635062e-01
 -3.5660809e-01
 -3.4290558e-01
 -4.8551458e-01
 -1.2378193e-05
  4.3441367e-05
 -1.1619828e+00
  6.4060010e-02
  5.0364262e-01
 -1.1417657e-01
  5.6174785e-01
 -6.4590120e-01
 -5.7238424e-01
 -3.3286965e-01
 -9.9540162e-01
  5.2066422e-01
 -1.3700788e-01
 -8.6357993e-01
  5.8453470e-01
  1.1431108e-01
 -8.1980461e-01
  3.7153357e-01
  7.0256603e-01
 -7.8040886e-01
  3.7159702e-01
  2.1902891e-01
 -3.7402731e-01
  2.7216482e-03
 -1.2491830e-01
  3.8095450e-01
  1.3960032e-01
  1.4920299e-01
  4.7577780e-01
  4.4930039e-05
  1.5231074e-02
 -5.0504968e-06
 -7.2811574e-01
 -3.6795642e-05
 -8.2319448e-06
 -1.0623634e-04
 -7.7305219e-07
 -7.3294475e-05
 -1.0362998e-05
 -8.5974625e-06
 -2.5477470e-05
  1.1155121e-05
 -5.0361468e-06
  3.4232116e-06
 -1.0445079e-05
  1.7726688e-05
  5.9552940e-06
  6.6241946e-06
 -1.6416268e-06
  3.3209462e-06
 -4.0053590e-05
 -9.3184162e-06
  1.2255303e-05
 -1.0553033e-05
  1.3700957e-05
 -1.3018854e-06
  4.1062187e-05
 -9.8889332e-06
  8.6953996e-06
  7.1646515e-05
 -3.4470235e-05
 -2.3623431e-06
 -2.9664452e-07
 -7.5886533e-09
 -3.8919757e-06
  1.2847801e-05
  1.2539507e-06
  4.0693203e-06
  3.0816544e-05
  2.3694972e-06
  1.8830731e-04
  6.5855429e-06
  1.1568810e-05
  6.9968919e-06
 -7.0236210e-06
  9.3005046e-06
  7.1453745e-05
 -5.4550769e-06
  1.2299211e-05
  1.5590656e-05
  1.4748441e-05
  1.4778301e-05
 -1.5732490e-05
  1.3837880e-05
  5.1825236e-06
 -7.9851088e-06
 -6.0530542e-06
  8.0875643e-06
  2.1027117e-05
  4.5804962e-05
  1.0373448e-05
 -3.5925634e-06
  1.0812152e-05
  6.8193608e-06
 -3.4796788e-06
 -1.4034426e-05
  1.5047644e-05
 -7.9218889e-06
 -5.3834192e-06
  4.0896975e-06
  1.0131556e-05
  2.5150484e-08
 -8.8734114e-06
 -9.5115691e-02
  2.4243391e-01
  5.7266486e-01
  7.5834560e-01
  8.4617877e-01
  7.1097159e-01
  5.7944280e-01
  6.5840346e-01
 -1.9210925e+00
  1.8339188e+00
 -7.4659586e-01
 -2.9584309e-01
  1.5959743e+00
 -2.5692871e-02
  2.8610039e-01
  8.1757605e-01
  2.5396571e-01
  1.5834436e+00
  6.5663852e-02
  5.7808167e-01
 -2.2146651e-01
  3.9954610e-02
 -7.8595549e-01
  3.8071367e-01
  6.5077594e-03
  1.2006826e-01
 -3.7338364e-01
  3.5412589e-01
  1.1670027e+00
 -2.9392055e-01
  6.2476486e-01
  7.0511693e-01
  2.7545679e-01
  1.1060744e-01
 -4.2183396e-01
  8.7760586e-01
 -1.4358482e+00
  2.6610810e-01
  1.2929025e+00
 -6.3274533e-01
  5.1355726e-01
  1.6004835e-01
  2.4808756e-01
  1.1966754e-01
 -3.2667467e-01
  9.2649110e-02
  5.2331978e-01
 -5.5035859e-01
 -1.4154994e-01
  6.7427154e-06
 -2.5225922e-01
 -8.1566632e-01
  2.4732612e-01
 -1.2842058e-01
 -4.2341462e-01
 -7.9911268e-01
 -8.2341148e-06
 -4.0832803e-01
  2.3118828e-03
  4.2781904e-01
  1.4748313e-05
  4.5998854e-04
 -3.5068341e-02
  1.2383434e-05
  1.6034269e-01
  3.7266869e-05
  1.0333066e-05
  4.3575640e-04
  3.2459179e-01
 -1.4785926e-06
  1.2608247e-01
 -4.7090369e-05
 -2.3789591e-01
  6.2879658e-01
 -2.7594987e-01
  6.0601187e-01
 -2.5837211e-04
 -1.5057606e-02
 -9.7752227e-06
 -9.1197026e-01
 -1.5297763e-05
  1.4413748e-03
 -6.4903243e-06
 -6.9854565e-02
 -4.7031663e-06
  3.8263261e-01
 -7.6327425e-01
 -3.2831842e-01
 -1.3208509e-04
  6.1566132e-01
 -1.4792948e-02
 -1.3141664e-04
 -5.2693460e-02
 -4.1455546e-01
  8.8923597e-01
 -5.4304481e-01
  6.7397559e-05
  5.5833364e-01
 -1.3659425e+00
  2.1324938e-03
 -3.7919235e-06
 -6.1224651e-01
  1.8291090e-02
 -3.6719498e-01
 -2.7828713e-05
 -1.0020958e-01
 -8.2928129e-02
  2.0492810e-06
  1.3856505e-01
 -7.4678876e-02
 -1.8297123e-03
  4.9717624e-02
 -3.2024204e-03
  1.7430251e-05
 -4.2863145e-01
 -7.7989963e-03
 -1.3665085e-01
 -1.2820623e-04
  8.5892461e-06
  5.2835089e-01
 -5.3521003e-06
 -4.4657034e-05
 -6.3292014e-06
 -3.3025106e-03
 -1.0939212e-05
 -1.2021868e-05
  1.2657541e-05
  3.1547078e-01
 -9.6662174e-05
 -8.3176310e-06
  1.7791642e-01
 -1.3299913e-05
 -1.4977421e-05
  4.2432392e-05
  2.9739374e-05
 -1.0602244e-05
  1.0665832e-05
  9.9199788e-06
 -8.7617345e-06
 -1.7611935e-06
  4.0998577e-05
 -3.7132755e-05
 -4.5487077e-06
 -1.4284946e-05
 -7.3668178e-07
 -1.2875360e-07
  8.6448954e-06
  2.6495532e-06
 -1.2729346e-05
  9.2472385e-07
 -7.0602778e-06
 -4.0094441e-05
  3.7475304e-06
 -1.2769950e-05
 -1.0612774e-05
 -2.1442122e-05
 -7.3870269e-06
  1.9243473e-06
 -4.5664647e-06
 -3.5905950e-06
  1.8574133e-06
 -1.0764379e-05
 -1.4845938e-05
  1.0020873e-05
 -1.2369868e-05
  3.7805885e-06
 -1.1296302e-05
  8.8373163e-06
  2.2557069e-06
  7.6525666e-06
 -3.5093556e-06
 -7.8703133e-06
 -3.4651293e-05
  1.1425253e-05
 -6.6630832e-07
 -7.5925200e-06
  7.5306198e-06
  3.4943735e-06
  1.6463433e-05
  1.9231611e-05
  7.3818504e-05
  1.1493546e-05
  8.0296768e-06
  3.6394158e-06
  9.2713672e-06
 -1.0690612e-05
  2.0247120e-05
  2.1018157e-05
  3.9333218e-06
 -3.9860366e-05
 -1.0713591e-05
 -4.8777713e-07
  8.2334518e-06
 -1.0260628e-05
  1.2612661e-05
 -2.9865054e-05
  2.6602918e-05
  6.8666182e-06
 -4.3342519e-05
 -3.3900792e-06
 -2.6617703e-05
  1.0016459e-05
 -4.3054665e-06
 -2.2174590e-06
 -6.0335833e-07
  5.5893925e-05
  4.1908861e-06
  1.1408920e-05
 -1.0625129e-05
  1.3000011e-06
 -6.5203349e-06
  4.0204272e-06
  8.5278152e-06
 -9.1077845e-06
 -1.4258869e-05
 -4.1929587e-05
 -1.0425568e-05
  4.6543761e-07
 -4.5453853e-06
  9.3296285e-06
 -5.1347693e-06
 -3.3705051e-06
 -3.3864731e-06
  6.3360312e-06
 -1.4215580e-06
 -1.1639602e-05
  4.5613797e-05
 -1.3085789e-05
 -3.4241143e-06
  3.7875116e-06
  9.6105787e-06
  4.1747440e-05
  3.0861083e-05
 -1.4422399e-05
  8.1023218e-06
 -1.4489351e-05
  1.0344581e-05
 -1.8417550e-06
 -1.7001617e-05
  3.9146307e-05
  1.0700247e-05
  2.8079114e-05
 -2.3658740e-07
 -1.2491019e-05
 -5.9987024e-06
  3.7711152e-06
  1.1063261e-05
 -1.3433858e-05
  4.5716650e-05
 -5.4402180e-06
 -3.0634565e-05
  3.8219914e-06
 -3.7475758e-05
 -5.0054946e-06
 -1.1608386e-05
 -4.8083730e-06
  2.9922843e-05
  1.4087628e-05
  5.0674744e-06
 -1.3122030e-05
 -8.2755741e-06
 -7.7185632e-06
  6.4919063e-06
 -1.5267236e-05
 -1.1649986e-05
 -3.6983372e-05
  1.0093561e-06
  1.4221718e-04
 -4.5248835e-06
 -3.7473190e-05
  7.6735141e-06
 -1.4417141e-05
  3.2514756e-05
 -3.5357562e-06
 -3.5987123e-05
  6.5757531e-06
  3.8653459e-05
 -2.5724896e-05
 -1.4031165e-05
  6.4091550e-06
 -1.1808044e-06
 -7.1115987e-06
  4.9127261e-06
 -7.9223755e-06
 -1.2180505e-05
  1.9649397e-05
  4.4942459e-05
 -1.3617258e-05
  6.2432227e-06
  2.1657313e-06
  1.5338048e-06
 -5.2101250e-06
  1.2859436e-05
  1.9849131e-06
  1.0852744e-05
  1.1297246e-04
 -1.3429277e-06
  4.8427387e-06
 -3.4045736e-06
 -6.4973538e-06
 -6.6081607e-06
 -4.3581513e-06
 -8.6121727e-06
  2.9513774e-05
 -3.6557398e-05
  1.5999736e-05
  7.1943418e-06
  6.4506065e-05
  5.7741859e-06
  3.5112280e-05
  4.9248401e-06
 -1.1726573e-05
  1.1984852e-05
 -5.0419976e-06
  1.5274569e-05
  4.1034473e-06
 -1.3905347e-05
  1.3086966e-05
  5.1110378e-06
  3.8900343e-05
  5.9080285e-05
  1.6514317e-05
 -6.7010906e-06
 -1.6092881e-05
 -3.3034723e-06
 -1.1402451e-05
 -2.8723573e-06
  7.2059913e-05
 -5.9285143e-05
  1.1933867e-05
 -6.0658564e-05
  3.0183396e-01
 -2.4602483e-05
  1.3188945e-04
  2.2217593e-01
  8.4452313e-06
  1.2318382e-01
 -5.9757916e-05
 -2.0438424e-01
 -1.1605523e-05
 -3.6406450e-02
 -2.6568949e-01
 -1.0426732e-05
 -2.5978225e-01
  1.4196432e-05
 -2.6205762e-05
  8.8117531e-06
 -1.8549138e-01
  4.5650075e-05
 -2.0206649e-05
 -7.2663409e-01
  2.6813158e-01
 -1.1817995e-04
  7.5821838e-05
 -1.0163833e+00
 -1.0722109e-05
 -9.6168555e-03
  2.3461096e-03
  9.8123592e-06
 -1.0576749e-06
  2.0028634e-02
 -6.1938536e-06
  9.8141145e-06
 -1.1586855e-01
 -2.8046823e-01
 -4.0955296e-01
 -9.7656118e-07
  4.2300627e-01
 -7.2438415e-06
  1.4967095e-02
 -1.9712692e-01
  3.1488355e-05
 -9.4728410e-01
 -1.8197343e-04
  1.1848438e-02
  1.0598496e-01
  5.7232205e-02
  2.9016785e-05
  4.1373500e-01
 -2.2233784e-04
  8.1705773e-01
  4.7391281e-04
  8.0415502e-06
  5.2889809e-05
 -3.9076570e-02
  5.1609118e-06
 -1.4061605e-05
 -1.6628459e-01
 -3.8936858e-05
 -6.7936926e-06
  1.1152492e-05
  4.2842500e-04
 -2.8717255e-07
 -3.8499597e-06
  3.2260190e-03
  7.8608628e-06
 -4.1193198e-06
  1.3599668e-05
 -4.2096337e-05
  1.8210061e-05
 -4.3920823e-05
 -8.3969258e-05
 -2.8515149e-06
 -1.2485836e-05
  1.3775551e-05
 -1.0542198e-05
  8.5171441e-06
  3.0820713e-05
  7.4860276e-05
  3.7626908e-06
 -4.5175229e-06
 -1.4331078e-05
  5.2726259e-06
 -3.5333574e-05
 -4.7117383e-06
  1.1373623e-06
 -4.2894681e-05
 -9.0153371e-06
  1.3432521e-05
  7.6022170e-06
  2.3009015e-05
  7.6014999e-06
  4.0780957e-05
  1.5608150e-05
  1.0542606e-05
 -5.1261441e-06
  5.3428653e-06
 -9.2778856e-07
  3.6654132e-05
  7.3958886e-06
  5.3440485e-06
 -1.3660519e-05
  6.0782927e-06
 -3.5351693e-06
 -3.7895072e-05
 -8.8642164e-06
  4.4382173e-06
 -1.3202457e-06
 -3.4373634e-06
  1.8683270e-06
 -3.1695609e-07
 -6.7890753e-05
  9.2488284e-05
  1.2652147e-05
  2.2050463e-06
 -1.1009599e-05
  1.4883091e-06
  5.3113072e-06
 -2.6049280e-05
 -1.5391873e-06
 -8.3233308e-06
  1.5014223e-05
 -1.1926070e-05
 -3.6580691e-06
  1.0260466e-05
 -4.4513639e-05
 -9.2979792e-07
 -9.1265763e-05
 -9.0840294e-06
 -1.3885447e-05
  2.8161438e-05
 -1.3940561e-05
 -2.7928984e-01
  1.0292301e-05
  5.9193089e-06
 -3.6403458e-06
  2.3890627e-05
  9.2977367e-05
  1.4418327e-05
 -4.4357410e-05
 -9.3482358e-06
  5.8988586e-05
 -2.1529434e-06
 -1.2396838e-04
  8.1404160e-06
 -1.1378155e-05
 -1.2287548e-05
  1.4751701e-05
 -3.4686440e-05
  3.3946540e-06
  4.2720558e-06
 -5.5506039e-06
  1.2960303e-05
 -9.2047372e-07
  3.9046081e-05
 -9.4445095e-06
  6.6870103e-05
 -1.5143077e-05
  1.8210309e-06
 -9.6046997e-06
  1.3636090e-05
 -7.1218747e-06
 -1.2440433e-05
 -3.2569958e-05
 -4.5691540e-05
  2.2302434e-06
  1.0998787e-05
 -4.2532829e-05
 -8.2634760e-06
  4.3435437e-05
 -1.0415906e-05
 -9.2810915e-05
 -1.5863710e-05
  3.0778640e-06
 -2.1338174e-06
 -3.6842717e-05
  2.0089934e-07
  6.3636769e-05
  4.4857978e-05
 -6.4863575e-06
  7.3789903e-05
  5.0504246e-07
  9.9570379e-06
 -2.3721302e-06
  1.1710453e-05
 -1.9828524e-06
 -3.1746178e-05
 -4.5336496e-05
 -1.1948843e-05
  1.4002075e-05
  7.2020812e-05
  1.3707050e-05
  2.0740581e-05
  8.4397770e-06
 -1.0540734e-05
 -6.9253510e-05
 -9.7928123e-06
  6.2014883e-06
 -2.3499501e-03
 -3.9901359e-05
  2.0688594e-05
  1.5189176e-05
  1.1485094e-05
  2.4373262e-04
  4.9107599e-05
  5.6316635e-06
 -7.3244929e-02
  1.6702573e-04
 -8.8806359e-05
 -5.3227115e-05
 -1.3316676e-06
  1.1547843e-05
  4.5162309e-05
  1.1030682e-05
 -1.1297981e-05
  2.4708566e-05
  4.9899213e-06
 -1.7940574e-05
 -1.4242544e-05
 -1.4846587e-05
  2.1787559e-06
  1.0393680e-05
 -2.4806621e-04
  3.8969442e-06
  1.3473513e-05
 -1.3882321e-05
 -7.3326439e-05
 -5.6632775e-06
  6.3386680e-05
  4.1034651e-05
 -1.1367745e-05
 -3.9392806e-05
  2.9087879e-04
  4.1397579e-05
  1.4464837e-05
 -4.2266931e-04
 -1.1774059e-05
 -3.7823573e-01
  2.9073974e-06
  4.3209326e-05
 -4.3361518e-04
 -5.6954755e-06
 -1.5248775e-05
  1.0526525e-04
 -1.8697243e-05
 -4.3884829e-06
 -3.0035766e-02
 -1.9802115e-05
 -1.1488188e-05
 -9.1271540e-06
  1.0616547e-04
 -1.3651159e-02
  1.2673745e-05
  2.7925753e-05
 -1.3166019e-05
  3.2798570e-04
  4.5276593e-06
 -1.0978581e-05
 -1.5010255e-05
  8.5743704e-07
 -2.2536375e-05
 -1.3870160e-06
 -7.2331550e-06
 -1.2870789e-05
 -1.9830739e-01
 -7.0367181e-01
 -1.7281877e+00
  9.7881049e-02
  2.6959379e+00
 -3.6528292e-01
  2.4592444e-01
  1.2445351e+00
 -4.7583971e+00
  1.0403903e+00
  3.0579686e-02
 -1.5244605e-01
 -2.6063076e-01
  8.0054939e-01
  3.8535336e-01
 -1.7362847e+00
 -3.8501646e-05
 -7.9617542e-01
  7.1655124e-01
  4.7171760e-01
  1.0219231e+00
 -2.0923041e-01
  1.7995916e-01
 -2.4717100e-02
 -6.7628098e-01
  4.5003853e-05
 -1.4356378e+00
  2.6911417e-01
  2.7877495e+00
  6.6379637e-01
 -7.2450024e-01
 -5.7279962e-01
  1.4905524e+00
  4.5464658e-03
  5.9012818e-01
  3.8944191e-01
  3.9309525e-01
 -1.4542971e+00
 -6.2329978e-01
  9.9687243e-01
 -5.1906985e-01
 -9.5957220e-01
  8.9174837e-02
  1.1266170e-01
 -6.0504396e-03
 -5.4171664e-01
  2.4618575e-01
 -9.7791058e-01
 -2.2234495e-01
  1.1141680e-02
  8.0235052e-01
  3.4650236e-02
 -6.7984454e-02
 -3.3261545e-02
 -3.7104240e-01
 -1.3457544e-04
 -5.9833616e-02
  1.7641006e-02
  4.0296862e-01
  6.1064023e-01
  1.5214241e-05
 -7.6085639e-01
 -3.1534025e-01
 -2.4838774e-01
  3.1170619e-01
  1.4298053e-05
  1.6366517e-05
  1.0142266e-08
 -6.5777158e-06
 -2.3066648e-05
  4.3336484e-05
  1.0380309e-05
 -1.2109802e-05
  1.3426572e-05
  1.2090894e-05
  1.4601580e-05
 -8.6143507e-07
 -1.3450824e-05
 -2.4881636e-05
  4.1633452e-06
  9.0056728e-06
  3.9343617e-05
  1.5283273e-05
 -1.9876734e-05
  9.7442953e-06
 -9.7835882e-06
 -1.1314130e-05
  6.7530373e-06
  5.0502229e-05
 -1.1778179e-05
 -2.3910918e-05
  1.3063109e-05
 -1.0570563e-05
 -1.5014706e-05
  3.7335824e-06
 -6.9042312e-06
 -1.0515032e-06
 -1.0503992e-06
 -7.9107112e-06
 -1.0849849e-05
 -5.6923409e-06
  5.8709879e-06
 -3.0405119e-05
 -7.0059305e-06
  3.5695418e-06
  1.3803785e-05
 -3.9532533e-05
 -1.0418384e-05
  3.5737805e-05
  3.5168146e-06
 -1.1636794e-05
 -8.2807019e-06
  9.7396858e-03
 -1.1289542e-05
  8.8058223e-06
  6.9380803e-07
 -2.8190238e-06
 -6.5160248e-06
  3.4230525e-05
  7.8230532e-06
  1.0056255e-05
 -7.3995727e-07
  4.3401102e-05
  9.3717654e-06
  6.8506688e-07
 -1.2968186e-05
  1.1796944e-05
  2.8064549e-06
 -2.7808103e-06
 -5.4555458e-06
 -2.9287488e-05
  2.4793966e-05
 -6.4919427e-06
  8.2727616e-05
 -1.2948694e-06
 -1.7757922e-06
 -7.6673450e-06
  2.4571997e-05
  3.6569156e-05
 -4.0075338e-06
  4.2753312e-05
 -2.3838033e-05
 -1.8027001e-06
 -1.0858924e-05
 -1.7292341e-04
  5.3506719e-06
  2.2537984e-05
  6.2249701e-06
  8.1406361e-06
 -1.1205662e-05
 -6.3760590e-06
  1.5457068e-04
 -8.8038587e-06
  1.1398940e-06
  1.4622183e-05
  2.8589335e-05
  1.8221031e-05
  1.0420641e-05
 -1.1205444e-05
  1.7272561e-06
 -6.4466203e-06
  1.3454677e-05
  1.1816124e-05
 -9.9313802e-06
 -2.8573424e-05
 -1.4590269e-05
  1.4086781e-06
  7.7080012e-06
  4.4069525e-06
  6.7514707e-06
  1.3980461e-05
  8.6626851e-06
  3.0949030e-07
 -1.0471914e-06
 -8.7759310e-07
  2.8419236e-06
 -6.6575240e-06
  2.5301393e-05
  3.7325142e-05
  3.5399924e-05
  1.3338337e-05
  9.0128538e-05
  2.9577475e-05
  9.7684451e-06
 -8.3404420e-06
  2.7531555e-06
  1.3697683e-04
  4.3855180e-06
  1.3435681e-06
 -3.4746037e-05
 -9.8548226e-06
  8.9004043e-06
 -5.3142307e-05
  3.3077802e-06
  3.8758182e-05
  1.4420363e-05
  6.7716149e-07
 -8.0524287e-06
 -7.9117935e-06
 -3.1385400e-05
 -1.5303493e-05
  6.7076244e-06
  9.4643374e-06
 -8.5273869e-06
  1.4084575e-05
 -4.5282009e-06
  8.9806599e-06
  6.4466867e-06
 -9.6745071e-06
 -5.2008085e-07
  5.6977688e-06
  3.5259950e-06
 -4.0420789e-05
  1.4780846e-05
 -1.4557224e-05
  4.2500997e-05
 -1.9840527e-06
  7.2939915e-06
 -1.0067765e-05
  1.0090957e-05
  3.1204305e-05
 -9.1338170e-06
  1.1680793e-05
 -1.1176734e-05
 -2.3479937e-05
 -9.0821577e-06
 -2.6446362e-06
 -6.2028877e-05
 -1.2857078e-05
  8.1826875e-06
  3.4326924e-05
 -1.9381116e-06
  5.8166129e-06
  8.6910077e-05
  3.5125566e-05
  1.4444162e-05
  7.3793185e-06
  8.3140258e-06
  4.5095821e-06
  5.9672689e-06
 -4.3795448e-05
  6.2936879e-06
 -2.2885084e-05
 -6.8270351e-06
  6.2943080e-05
  5.0822205e-06
 -1.0992070e-05
  5.3739545e-06
  7.2210045e-05
  9.9959043e-06
 -1.1290105e-05
  1.3006383e-05
  6.7246865e-06
 -1.8823739e-05
 -1.2778259e-05
  3.1051928e-05
  1.1820754e-05
 -2.7791953e-06
 -1.6256547e-05
 -1.6697319e-06
 -1.1174102e-05
 -1.2256761e-06
 -1.6413167e-06
 -1.4033901e-05
 -7.3493452e-06
 -8.1172138e-06
 -3.9424285e-06
 -3.3773231e-06
  1.2564553e-05
  9.4036113e-06
 -4.6390296e-06
  1.2984466e-06
 -1.5607986e-04
 -9.7225948e-06
 -8.4948106e-06
  1.0268331e-05
  1.1751665e-05
  3.5207681e-06
  1.3537509e-05
 -4.4230401e-05
  1.3752587e-05
  2.3278453e-05
  9.1132524e-06
  7.3751003e-06
  3.5111637e-07
 -6.9197748e-05
 -7.0166684e-06
 -1.1732856e-05
  3.5274941e-05
  1.1246458e-05
 -1.8135205e-06
  1.2529493e-05
 -1.5100255e-05
 -4.1372509e-06
  2.4615622e-06
  1.4861619e-05
 -1.3209434e-05
  7.4042175e-05
  9.7420336e-05
  2.2330009e-05
 -2.6996237e-05
 -5.3786740e-02
 -1.1353594e-05
  1.2493601e-02
 -3.1963082e-05
  1.1695733e-05
 -1.3822588e-05
 -3.9242227e-06
 -1.1131177e-05
 -4.1782157e-05
 -1.0109892e-05
  6.2216845e-05
 -2.1299302e-06
  2.5253568e-05
 -1.0339977e-05
 -1.3273135e-06
  7.0757276e-05
 -5.9757227e-01
  9.7271459e-06
 -1.0566723e-04
  6.3378175e-06
 -1.7072565e-05
  7.6057542e-05
 -1.4288660e-05
  1.3983709e-05
  1.1199091e-05
  1.3648385e-05
 -4.4200297e-06
 -8.9012710e-06
  9.4966827e-06
  9.4400402e-03
 -9.6016438e-06
 -1.0594561e-04
  7.0383471e-06
 -3.7052985e-02
 -1.2007985e-01
 -2.8261578e-05
  4.3984824e-06
  1.2388027e-01
 -1.5761757e-02
 -1.0152115e-04
  1.0116718e-02
 -9.6917574e-05
  3.6933750e-02
 -8.0300070e-02
  3.0108682e-05
 -1.1636015e-05
  1.2489443e-02
  3.8625349e-05
 -7.7912600e-06
  3.0787405e-01
  1.0072823e-05
 -5.8930018e-04
 -1.0283697e-04
  5.9237071e-05
  1.1782515e-04
  4.0092782e-04
  1.4274625e-05
 -6.9215741e-05
  1.1013243e-01
 -1.3671804e-04
 -2.1175943e-05
  3.8579286e-03
 -8.8239074e-02
 -8.5904086e-03
 -3.2366958e-04
  1.2066494e-04
  4.9328678e-03
  1.4336061e-05
 -1.2496227e-04
  4.8795674e-02
 -1.0054796e-05
  2.5869792e-02
 -1.2775679e-01
  1.1890290e-05
  3.7870050e-06
  3.0731182e-05
 -1.3399579e-01
 -3.6020286e-02
 -1.0540446e-04
  1.1566764e-02
  1.2199606e-05
  8.1856851e-05
  6.1289944e-02
  1.0872906e-05
 -1.8503471e-05
  2.9768242e-04
 -3.1590348e-01
 -9.4726146e-04
  2.9078705e-05
 -8.4915191e-06
 -1.4040936e-03
  3.1273983e-05
  6.4346132e-05
  6.8258701e-06
  7.2747921e-06
  1.9544033e-05
 -1.5966350e-05
  6.9235713e-05
  1.3534740e-05
  2.5142203e-05
 -1.1378264e-05
  2.5774290e-05
 -7.5473927e-06
  2.6487131e-05
  1.2209214e-05
 -3.9617919e-07
 -2.3773323e-06
 -1.5208515e-05
  1.2988916e-05
  1.1835094e-05
 -2.6465559e-06
 -1.0506997e-05
 -5.0783033e-06
 -1.0956397e-06
  4.3750995e-05
  2.9157614e-05
  4.0481709e-07
  1.0581702e-05
 -2.6274417e-06
  1.0228364e-05
 -6.0472316e-06
 -7.1268742e-06
  9.6554659e-06
  2.6810681e-05
  2.4842670e-05
 -4.0959232e-05
 -6.2942740e-06
 -3.3394952e-07
 -1.3332522e-05
  1.0576789e-05
 -4.1121621e-07
  6.0189222e-08
  6.9706421e-06
 -4.1456678e-06
  6.3125358e-06
  1.5825757e-05
  3.1231471e-06
 -2.1758296e-05
 -2.1861310e-06
 -3.3424631e-06
  2.4506138e-05
 -2.4698042e-05
  7.4181589e-06
  2.3160728e-06
  2.6920138e-06
  1.4128937e-05
 -1.4537789e-05
  3.0246512e-05
 -1.2576266e-05
 -1.2886518e-06
  9.7568591e-06
 -4.4512555e-05
 -1.1089005e-05
 -1.2425326e-05
  1.2205735e-06
 -3.8417165e-05
 -1.3018955e-05
 -1.4222983e-05
 -3.9064680e-06
  2.1464557e-06
 -7.4798129e-07
 -6.0937518e-01
  4.5495325e-01
 -8.6444175e-05
 -1.2199250e-05
 -5.2721547e-03
 -1.6910695e-01
 -1.9400911e-02
  8.5517146e-02
 -4.1371191e-01
  7.4431759e-01
 -3.4325492e-01
 -5.7307266e-02
  3.2027227e-01
  1.6089926e+00
 -4.7990271e-01
 -2.1725634e-01
 -2.7152522e-05
 -1.0932439e-01
 -1.4539446e-01
  2.3110970e-05
 -9.1870826e-01
 -4.5164371e-01
 -9.1381687e-01
  7.3464849e-05
 -1.3719268e+00
  4.6187743e-06
 -3.1293917e-01
 -1.9252013e-01
  4.9433891e-02
 -1.5580709e-01
 -1.9206676e-04
 -8.9734131e-01
 -3.0125684e-01
 -2.7022667e-02
 -1.6386539e+00
  8.5030633e-01
  8.8230360e-01
  8.5219437e-01
 -1.7411582e-01
  5.1887149e-01
  4.0101057e-01
 -1.4721866e-03
 -2.9624099e-02
 -2.6752874e-01
 -7.7844745e-01
  7.3460127e-05
 -4.0404283e-02
 -6.7174262e-03
  8.6418492e-01
  7.6165110e-05
 -8.1631236e-02
 -2.6683041e-01
  3.6366248e-05
 -1.5692942e-01
  4.3903959e-01
 -8.8788144e-02
  1.3697919e-04
 -7.5620997e-01
 -1.0147268e-04
  8.5629026e-06
 -2.4186534e-06
  2.9550336e-05
  2.1151038e-05
 -4.8412096e-07
 -6.0281664e-01
  2.3144350e-05
  1.0439820e-05
 -1.3434618e-05
 -1.3541931e-05
  5.0005606e-06
  2.2973134e-06
  1.4779896e-05
  6.4780397e-06
 -3.0078287e-05
  3.5064895e-06
 -1.0320694e-05
  2.9675261e-05
  6.6714683e-06
 -8.7500700e-07
  7.5901012e-06
  3.3176025e-06
  1.0829680e-06
  4.2229960e-05
  1.4727916e-05
 -1.3137090e-05
  4.3626002e-05
 -3.9434992e-05
  2.8976951e-06
 -2.1530373e-06
 -6.2110448e-05
  4.7831195e-06
 -1.3374100e-05
  3.7142450e-05
 -1.0309543e-06
  1.4167538e-05
  9.2796927e-06
 -2.7429389e-06
  6.0004636e-06
 -1.1622577e-05
  9.5714922e-06
 -9.1995025e-06
  4.7216326e-06
  1.2544808e-05
 -4.1531868e-05
 -9.9319968e-06
 -3.4284094e-05
  5.2434251e-07
 -2.5651207e-05
  4.5344495e-05
 -2.7804088e-05
 -9.7741668e-06
 -1.4154368e-05
  4.3615601e-06
 -7.2971352e-06
  9.8050623e-06
  1.7652002e-06
 -1.3696865e-05
 -8.0932059e-06
 -1.4357159e-05
  1.0214307e-05
  8.5825914e-06
 -8.5107968e-07
 -1.7039212e-05
  9.4177722e-06
 -1.3954776e-05
 -1.9707250e-05
 -2.9248815e-06
  2.2587981e-06
 -4.4984583e-05
  3.5951962e-05
  3.6905778e-06
 -8.7814738e-07
 -6.9862527e-01
  7.1537483e-01
 -3.8284655e-03
  7.2991286e-05
  1.6254928e+00
  1.0686208e+00
  1.5602562e-01
 -8.8795686e-01
 -6.0593295e-01
 -3.6740050e-01
 -2.4237980e-01
 -1.0994740e-01
  3.2398191e-01
  5.2580243e-01
  2.7765769e-01
  1.0661200e-01
 -2.6173670e-06
  2.7015156e-01
  1.0199524e-04
  4.3969008e-05
  3.8945726e-01
 -2.4276858e-04
  4.3012085e-05
  1.8528073e-05
  1.9572210e-01
 -2.5357758e-07
 -5.2261014e-02
 -4.5333112e-05
 -1.8706241e-05
 -8.2546584e-02
 -3.7390682e-06
  6.3387006e-06
 -1.0669119e+00
  1.0815965e-01
 -1.1508075e-01
  9.4634388e-04
 -3.7675494e-05
 -4.3354633e-01
 -9.1676047e-05
 -1.0969578e+00
 -8.5881044e-04
  8.7971830e-06
 -7.2938454e-01
  1.3144416e-04
 -7.4656513e-05
  1.1912826e-04
  5.8230873e-02
  8.9849770e-04
 -1.0508410e+00
  3.6237832e-02
 -3.5511765e-01
  1.1110269e-03
 -1.2735355e-05
  8.3923775e-01
  3.3603741e-05
  1.1427102e-03
  4.8829603e-05
 -1.9051224e-06
 -1.6303820e-05
  1.4948456e-05
  1.2653037e-05
  8.6528063e-02
  8.6934728e-07
 -9.9569324e-06
  2.9335082e-01
 -1.4013592e-05
  3.6228368e-01
  6.7885393e-01
  4.8578694e-01
 -1.8879839e-05
 -2.9528886e-01
 -1.5187688e-05
 -3.0378303e-01
  7.5727120e-02
  7.8681666e-01
 -5.9704286e-01
  1.4389604e-01
  1.1990958e-01
  5.5890924e-01
  3.1586623e-01
  3.9445159e-01
 -8.2962209e-01
  6.2904087e-06
  9.9622893e-01
  3.8563976e-01
  1.1285445e-01
 -6.9019562e-01
  1.2519631e-04
  1.5284371e-01
  7.9217905e-01
  2.8269380e-01
  8.3654176e-04
  4.0353811e-01
 -2.5275752e-01
  1.4235394e+00
  2.6109937e-04
  2.3736520e-06
  7.4285495e-01
  3.4824905e-01
 -8.6752968e-03
 -7.1619779e-02
  2.2236331e-01
 -5.1172726e-02
 -9.5523089e-02
 -2.3209948e-05
  1.6544847e+00
  8.2713887e-02
  7.5482923e-05
 -2.3565783e-01
  3.5147196e-01
 -2.4719513e-03
  1.0542054e-01
  1.5595776e-01
 -2.0516285e-01
 -1.5861404e-01
  4.7429694e-05
 -2.3846988e-01
  9.1959789e-02
  1.3726180e-03
 -1.1451690e+00
  2.0547670e-01
 -1.0253812e-05
 -5.8579944e-06
  1.3377412e-01
 -7.1013951e-06
 -9.0295143e-06
  1.8242051e-04
  1.8150464e-04
  6.9109296e-06
 -1.0555484e-06
 -7.4930763e-06
  7.9824167e-06
 -4.3347813e-05
 -8.7758917e-06
  4.9031792e-07
  4.5727065e-05
 -1.2765053e-05
  6.3170548e-05
 -5.8357216e-08
 -1.8270875e-05
 -4.0562238e-05
 -1.4545661e-04
  2.4946790e-05
  1.0944063e-05
  4.1969113e-05
  2.6562631e-05
 -5.8071284e-05
 -5.1152979e-06
 -1.4157229e-05
 -3.6262627e-06
  1.0663672e-05
  5.4525017e-06
 -1.1798624e-06
 -3.8201775e-05
 -2.3864402e-05
 -3.5071709e-05
 -1.0789174e-06
  1.1448938e-05
 -1.3174012e-05
 -1.1212458e-05
 -8.0412201e-06
 -8.6360842e-07
 -5.8386172e-06
  1.3968638e-05
 -1.0882605e-05
  7.4407602e-05
 -1.0884374e-05
  8.9428559e-06
 -1.0028996e-05
 -1.2831913e-05
  3.2096505e-06
  5.0411398e-07
 -2.5857764e-07
 -1.1057474e-05
 -2.1080023e-06
 -1.0753419e-07
  8.0821201e-06
  4.3738792e-06
  1.3582139e-05
  5.4045513e-06
  1.6279328e-05
  8.5344982e-05
  9.3176050e-06
 -4.0528944e-06
 -8.9774467e-06
  6.1905985e-06
 -1.3384322e-05
  9.2898308e-06
  7.1097231e-05
 -9.7033853e-06
 -3.9576116e-06
 -1.0181845e-06
  1.5839669e-05
 -1.7194852e-05
 -6.3435714e-06
 -1.1122243e-05
  1.7172329e-07
 -8.3697557e-07
  2.1866089e-04
  4.5043880e-06
  4.0732393e-06
 -7.6647004e-05
  8.5035435e-06
  2.3610301e-05
 -1.0059934e-05
 -1.0979375e-05
  4.3045924e-04
 -6.7102934e-05
  3.1719039e-05
  9.5922413e-05
  4.3521459e-06
 -4.3103817e-05
  2.9714643e-06
 -8.9634113e-07
 -8.2005718e-06
 -1.4591833e-05
 -3.9768061e-06
 -1.3218136e-04
  5.1541724e-06
  2.9724310e-06
 -8.6583896e-06
  9.7630082e-06
  1.6170921e-05
  3.2113847e-05
 -3.0543524e-05
 -4.1200667e-05
 -8.4084939e-05
  4.3927562e-06
 -1.4459660e-05
 -3.3078948e-05
 -6.6913112e-06
  5.7707370e-05
 -1.0435020e-04
 -1.9240199e-04
 -4.6329546e-06
  1.2112239e-04
  6.0256493e-06
 -6.7734458e-05
 -1.3840001e-05
  1.3568472e-06
  1.4858828e-03
 -1.1023801e-05
  1.4556550e-05
  2.4834981e-05
  4.7780673e-06
  1.4521042e-05
 -3.7588528e-01
 -7.8394387e-06
  7.8602105e-05
 -9.1510155e-06
  1.0892220e-05
  3.6358289e-02
  1.8104265e-07
 -9.1550455e-06
  6.1363462e-05
 -1.0716004e-05
  1.4821353e-05
 -7.3691905e-07
 -1.0878653e-05
 -1.0773099e-05
  1.0804618e-05
  1.3668527e-04
 -1.4587502e-05
 -1.6478043e-07
 -1.1580433e-05
  1.7243492e-05
 -3.5051384e-05
  9.6527517e-01
  1.4187556e-05
 -8.4332258e-01
  6.5531538e-05
 -6.3536638e-01
  1.7245731e-05
  1.4256304e-05
  1.4259510e-01
 -1.1725694e+00
 -1.1334145e-05
 -9.1523248e-01
  2.5843623e-01
  1.1376967e-05
 -2.3813879e-01
 -1.5590922e+00
  1.3069934e+00
  3.1253022e-01
  1.4760983e+00
  3.4702227e-06
 -4.7829558e-06
 -9.3414253e-01
 -7.3827302e-01
  1.3913012e-05
  9.8276639e-01
  1.3532180e+00
  5.2465461e-02
  1.0664223e-04
  5.2091400e-06
  3.0514327e-06
  4.7221965e-06
 -7.6519900e-06
 -5.5141743e-07
 -2.5852077e+00
  2.3609995e-05
 -3.9503685e-01
 -1.3155761e-01
 -2.7830089e-05
 -1.1032388e-05
  1.2623243e-05
 -8.7856412e-01
 -1.5408557e-05
 -2.9555020e-05
  1.4852650e-01
 -1.1662528e-01
 -8.6251248e-06
 -1.2928891e-05
  4.0169092e-05
 -6.6633780e-05
 -1.2149576e-06
 -1.8399642e-05
  1.0419568e+00
  3.1967415e-05
 -9.8081194e-02
 -1.6451320e-01
 -1.1181570e-05
  1.4603338e-05
 -4.9368773e-06
 -8.9808727e-06
  6.4547412e-06
  1.3837842e-05
 -7.6005238e-01
 -1.0852766e-01
  1.4458582e+00
 -2.0395133e-05
 -2.2182100e+00
  2.4688998e-06
  7.0171933e-07
 -3.1266192e-01
 -8.4458470e-01
  1.3001997e-05
  5.9368527e-01
  4.1693544e-01
 -7.6287347e-06
  2.6906163e-01
 -4.8546705e-01
 -1.7969115e+00
  6.1213171e-01
  8.0820811e-01
  2.4234505e-05
  1.2582836e-05
 -1.0198355e+00
  7.1013212e-01
 -8.2477191e-06
  1.2482411e+00
  1.2492545e+00
 -4.8564103e-01
 -2.3509556e-02
  4.4643293e-06
  1.3295338e-05
 -8.0331201e-06
  1.0524591e-05
 -1.4300985e-05
 -1.3136799e+00
  1.2573450e-05
  1.0747553e+00
  6.4403379e-01
 -2.9357748e-06
  8.8947045e-06
  1.5801854e-05
  4.8639914e-01
 -5.7553018e-05
  1.3796145e-01
  3.0052117e-01
  2.2371511e+00
  8.0295926e-05
  1.4929218e-05
 -5.1253396e-06
  1.5351197e-01
 -5.1695621e-01
  1.3445152e-05
 -7.1256608e-01
 -1.7030907e-05
  3.9324397e-01
  9.1823190e-01
 -8.3169380e-06
 -1.9922122e-01
  6.0235250e-01
  6.1583150e-02
 -6.3930893e-06
 -1.1526375e-05
  1.0630752e-01
  1.3208677e-05
  4.8786742e-06
  1.0371039e-05
  7.9905512e-06
  3.6247635e-05
 -1.4422128e-05
  6.2675495e-03
  1.4411389e-05
 -5.6306380e-06
 -2.3044491e-01
  2.7099056e-02
 -5.1628089e-01
  1.3890848e-01
  3.5032138e-01
 -4.9133340e-01
  1.3830273e+00
  1.0070970e+00
 -6.0604483e-01
  1.0158565e+00
  2.1907344e+00
 -7.5454706e-01
 -4.6973637e-01
  1.3813477e+00
  3.2252710e-02
 -8.3175600e-01
  2.7821426e+00
  1.0627659e-01
 -1.1001482e+00
 -1.0703617e+00
 -1.4459563e+00
  8.3703989e-01
 -2.1966625e-02
  2.2790301e+00
  8.2717890e-01
  1.2750450e+00
  4.0890223e-01
 -2.5552295e-05
 -5.6855291e-01
  7.3055580e-02
 -7.6007296e-04
  4.1540172e-02
 -5.1411014e-02
 -9.2571080e-01
  1.5103849e-04
 -2.8675818e-01
  7.9176730e-01
  3.3066329e-04
 -1.7266539e+00
  3.8057694e-01
  2.8852604e-05
  1.1886460e-01
  6.8505433e-05
 -3.0461084e-05
  1.7822881e-01
  2.9419092e-05
 -9.1879264e-02
  4.3819618e-01
 -2.1171050e-05
  2.9309445e-05
  1.7839251e-05
  4.9685132e-05
  2.0568993e+00
 -4.3849143e-01
  2.4659069e+00
 -2.3098748e+00
  2.4770316e-01
  2.3397944e+00
 -1.6964911e+00
 -2.1053044e-01
  1.4208005e-01
  2.7877805e-01
 -1.2031828e+00
 -1.3775291e+00
  3.0597076e-01
  1.7406625e+00
 -9.4449379e-02
  5.5766782e-06
 -1.0191913e+00
  9.6644270e-01
 -1.0402325e+00
 -2.6062090e+00
  8.2511604e-01
  2.0542972e+00
 -9.8264366e-01
 -1.5389231e+00
  1.3752048e+00
 -1.5163912e-01
  1.5377413e+00
 -8.9419431e-05
  6.0873336e-01
  3.9336851e-01
 -1.7535305e-05
  2.6876587e-01
  2.4523799e-01
 -4.2123064e-02
  3.9821699e-01
  1.4179535e-01
  5.1558518e-04
  9.4749361e-01
 -5.2375126e-01
 -1.1917914e+00
  7.2995786e-06
  2.9750046e-01
 -1.9122000e-03
 -4.8950103e-01
  1.1313972e+00
 -2.0449761e-01
 -2.6473153e-01
  2.0839464e-02
 -1.3553288e+00
  6.1246209e-02
 -1.2961473e+00
  3.9767408e-01
  1.1635760e+00
  2.3438213e+00
  1.4820477e-01
  1.6222839e+00
  5.4734719e-01
 -1.9069704e+00
 -8.4079647e-01
  9.4186157e-01
 -4.1819799e-01
  1.7621387e+00
  2.5739942e+00
  1.1481507e+00
  5.9055585e-01
  1.1290377e-01
 -1.6837487e-01
  4.0130612e-02
 -1.3172297e+00
 -8.2492054e-01
  9.5496225e-01
 -5.1924461e-01
 -1.1034849e+00
  5.0026935e-01
 -1.4312259e+00
  7.3555243e-01
 -5.1333481e-01
 -7.7415824e-01
  2.7812594e-01
 -1.0269309e+00
  2.6099837e+00
 -6.1248753e-02
 -7.0443720e-01
  3.1553166e+00
 -2.4689415e+00
 -1.2815701e+00
  1.8480046e+00
  1.2084608e+00
 -5.8429456e-01
 -9.6403584e-02
 -7.8849472e-02
  3.7543312e-01
 -2.2756292e-01
  2.0367339e+00
  7.7687466e-01
 -1.6872514e+00
  2.0986917e+00
  1.5148009e+00
 -1.5221062e+00
  8.9726073e-01
  2.4571536e+00
  6.3449091e-01
  2.5896218e-02
  1.5247490e+00
  4.9203387e-01
  3.1683655e+00
 -1.4798880e+00
 -1.6280652e+00
  2.8037333e+00
  1.0516663e+00
  9.8827362e-01
  2.1054010e-01
  2.6466296e+00
  1.5167772e+00
  4.2500225e-01
 -6.4166963e-01
 -3.0710930e-01
 -3.0699372e+00
 -5.2776313e-01
 -1.5320092e+00
  2.1461932e-01
 -1.4286644e+00
 -7.0465225e-01
  1.0188996e+00
 -2.0113127e+00
  1.1250604e+00
 -1.5932773e-01
 -5.5855179e-01
  5.4072022e-01
  4.4800952e-01
  1.3643273e+00
 -1.7898558e-01
 -1.6690567e-01
 -6.0921282e-01
 -1.2710205e+00
  7.0153266e-01
 -4.5443627e-01
 -6.2120384e-01
  1.2344319e-01
 -1.6399006e+00
 -2.4782310e+00
 -1.0457740e+00
 -6.2398970e-02
 -4.8198063e-02
 -8.7318891e-01
 -3.1788611e-01
  2.2380471e+00
 -3.3681333e+00
  2.2783067e+00
 -2.7555232e+00
 -2.8632185e+00
  1.6474889e-01
 -3.2816699e-01
  3.1524815e-02
 -9.7422194e-01
 -3.2811788e-01
 -2.9123596e-06
 -2.1853484e-01
  6.4784712e-05
  1.4327367e-01
 -1.0240079e+00
 -2.7061821e-04
  4.7036496e-01
  4.2074579e-01
 -1.1966009e+00
 -1.1436841e+00
  1.7549132e+00
 -2.0662357e-01
 -1.5021039e+00
  2.8019614e+00
  1.5638953e+00
 -2.5893235e+00
  2.8626618e+00
 -5.4472083e-01
 -1.4655702e+00
 -8.6365008e-01
  2.8041539e-01
 -9.3510050e-01
  5.1208305e-01
  6.1601263e-01
  7.4774253e-01
  4.1018477e-01
  8.5621405e-01
  1.2795043e-01
 -1.5850616e+00
  1.7005799e+00
  7.2135407e-01
 -1.0310363e+00
  7.9963255e-01
  8.4984630e-02
  1.9970607e-02
 -2.6618495e+00
  6.3888133e-01
  3.3568829e-01
 -1.3423927e-01
  6.0326822e-02
 -4.5308375e-01
  1.7472161e+00
 -2.0189703e+00
 -3.0045083e-01
  1.3135285e+00
  1.1771353e+00
 -9.1703844e-01
 -1.7554553e+00
  1.4296981e+00
  1.4499815e+00
 -6.1357695e-01
 -2.0923419e+00
  9.5371646e-01
  6.5227185e-05
  2.8324749e+00
  7.1028435e-01
  1.3377227e+00
  1.1349790e+00
  4.6503365e-01
 -1.0908180e-01
  9.1810159e-02
  3.6439466e+00
  7.4105585e-01
 -6.7051113e-01
 -1.9586553e-01
  1.4657802e-02
  1.4657802e-02
  1.4657802e-02
  1.4657802e-02
  1.4657802e-02
  1.4657802e-02
  1.4657802e-02
  1.4657802e-02
  1.4657802e-02
  1.4657802e-02
  1.4657802e-02
  1.5583056e-02
  1.5583056e-02
  1.5583056e-02
  1.5583056e-02
  1.5583056e-02
  1.5583056e-02
  1.5583056e-02
  1.5583056e-02
  1.5583056e-02
  1.5583056e-02
  1.5583056e-02
  8.4735313e-03
  8.4735313e-03
  8.4735313e-03
  8.4735313e-03
  8.4735313e-03
  8.4735313e-03
  8.4735313e-03
  8.4735313e-03
  8.4735313e-03
  8.4735313e-03
  8.4735313e-03
  1.1749209e-02
  1.1749209e-02
  1.1749209e-02
  1.1749209e-02
  1.1749209e-02
  1.1749209e-02
  1.1749209e-02
  1.1749209e-02
  1.1749209e-02
  1.1749209e-02
  1.1749209e-02
  6.1937114e-03
  6.1937114e-03
  6.1937114e-03
  6.1937114e-03
  6.1937114e-03
  6.1937114e-03
  6.1937114e-03
  6.1937114e-03
  6.1937114e-03
  6.1937114e-03
  6.1937114e-03
  2.4492634e-03
  2.4492634e-03
  2.4492634e-03
  2.4492634e-03
  2.4492634e-03
  2.4492634e-03
  2.4492634e-03
  2.4492634e-03
  2.4492634e-03
  2.4492634e-03
  2.4492634e-03